{"learner":{"attributes":{"best_iteration":"99","best_ntree_limit":"100","scikit_learn":"{\"n_estimators\": 100, \"objective\": \"reg:squarederror\", \"max_depth\": null, \"max_leaves\": null, \"max_bin\": null, \"grow_policy\": null, \"learning_rate\": null, \"verbosity\": null, \"booster\": null, \"tree_method\": null, \"gamma\": null, \"min_child_weight\": null, \"max_delta_step\": null, \"subsample\": null, \"sampling_method\": null, \"colsample_bytree\": null, \"colsample_bylevel\": null, \"colsample_bynode\": null, \"reg_alpha\": null, \"reg_lambda\": null, \"scale_pos_weight\": null, \"base_score\": null, \"missing\": NaN, \"num_parallel_tree\": null, \"random_state\": null, \"n_jobs\": null, \"monotone_constraints\": null, \"interaction_constraints\": null, \"importance_type\": null, \"gpu_id\": null, \"validate_parameters\": null, \"predictor\": null, \"enable_categorical\": false, \"max_cat_to_onehot\": null, \"eval_metric\": null, \"early_stopping_rounds\": null, \"callbacks\": null, \"_estimator_type\": \"regressor\"}"},"feature_names":[],"feature_types":[],"gradient_booster":{"model":{"gbtree_model_param":{"num_parallel_tree":"1","num_trees":"100","size_leaf_vector":"0"},"tree_info":[0,0,0,0,0,0,0,0,0,0,0,0,0,0,0,0,0,0,0,0,0,0,0,0,0,0,0,0,0,0,0,0,0,0,0,0,0,0,0,0,0,0,0,0,0,0,0,0,0,0,0,0,0,0,0,0,0,0,0,0,0,0,0,0,0,0,0,0,0,0,0,0,0,0,0,0,0,0,0,0,0,0,0,0,0,0,0,0,0,0,0,0,0,0,0,0,0,0,0,0],"trees":[{"base_weights":[-1.0126559E-1,-4.421208E-3,-3.9059517E-1,-1.3100724E-1,6.5928034E-2,-4.0519246E-1,1.2244898E-1,-1.1035991E-1,-4.1555244E-1,1.3921958E-1,-2.4723032E-2,-1.2308673E-1,-4.160043E-1,2.6077098E-1,-2.1938775E-1,-1.6591223E-1,-4.776377E-3,-9.1836736E-2,-4.2383382E-1,1.6646442E-1,-2.2999674E-2,4.4382066E-3,-1.2008462E-1,4.8752844E-2,-3.010204E-1,-4.4703004E-1,-3.56387E-1,1.5306115E-2,2.8954083E-1,4.6218485E-2,-1.7967346E-1,-1.96793E-1,2.8588297E-2,9.9883854E-2,1.98815E-1,1.128118E-1,-7.56433E-2,1.1804268E-1,-1.7699115E-2,-1.5711285E-1,5.5782318E-2,1.1224492E-1,-2.4489796E-2,-7.142857E-2,-3.2361516E-1,-3.631272E-1,6.122448E-2,-9.863946E-2,1.8594104E-1,-1.6851553E-1,-4.3061224E-1,-7.0408165E-2,-2.857143E-1,1.322449E-1,-4.3792516E-2,1.3041788E-1,-7.411386E-2,2.1184371E-1,-1.7687071E-2,1.8210362E-1,-5.612245E-2,1.0204082E-1,-1.1015175E-1,-1.9217686E-1,1.6274202E-1,-5.7142857E-2,4.597701E-2,-3.7244898E-1,-1.341108E-1,-9.912536E-2,1.7006803E-1,-5.1020402E-2,1.0204077E-2,-3.6804798E-1,-2.7210882E-2,-5.1020414E-2,1.4285713E-1],"categories":[],"categories_nodes":[],"categories_segments":[],"categories_sizes":[],"default_left":[1,1,1,1,1,1,1,1,1,1,1,1,1,1,0,1,1,0,0,1,1,1,1,1,1,0,1,0,0,1,1,1,1,1,1,1,1,1,1,1,1,0,1,0,0,1,1,0,0,0,0,0,0,0,0,0,0,0,0,0,0,0,0,0,0,0,0,0,0,0,0,0,0,0,0,0,0],"id":0,"left_children":[1,3,5,7,9,11,13,15,17,19,21,23,25,27,-1,29,31,-1,-1,33,35,37,39,41,43,-1,45,-1,-1,47,49,51,53,55,57,59,61,63,65,67,69,-1,71,-1,-1,73,75,-1,-1,-1,-1,-1,-1,-1,-1,-1,-1,-1,-1,-1,-1,-1,-1,-1,-1,-1,-1,-1,-1,-1,-1,-1,-1,-1,-1,-1,-1],"loss_changes":[4.5362564E1,1.0819588E1,3.090168E0,2.503933E0,5.1923723E0,1.1535873E0,6.2461245E-1,2.3805642E0,3.8820267E-2,1.9131126E0,9.7383475E-1,5.038924E-1,5.435562E-1,5.912614E-2,0E0,7.848067E-1,9.0895265E-1,0E0,0E0,7.77092E-1,4.589588E-1,6.7859703E-1,5.4275143E-1,4.4601794E-2,1.8385172E-2,0E0,4.022274E-1,0E0,0E0,3.624198E-1,6.2742424E-1,2.1588767E-1,9.13624E-1,6.631464E-1,7.0329E-1,2.2092381E-1,2.9329374E-1,6.414062E-1,5.7025445E-1,2.8686643E-1,2.8241408E-1,0E0,5.1228637E-3,0E0,0E0,2.0983124E-1,3.4777176E-2,0E0,0E0,0E0,0E0,0E0,0E0,0E0,0E0,0E0,0E0,0E0,0E0,0E0,0E0,0E0,0E0,0E0,0E0,0E0,0E0,0E0,0E0,0E0,0E0,0E0,0E0,0E0,0E0,0E0,0E0],"parents":[2147483647,0,0,1,1,2,2,3,3,4,4,5,5,6,6,7,7,8,8,9,9,10,10,11,11,12,12,13,13,15,15,16,16,19,19,20,20,21,21,22,22,23,23,24,24,26,26,29,29,30,30,31,31,32,32,33,33,34,34,35,35,36,36,37,37,38,38,39,39,40,40,42,42,45,45,46,46],"right_children":[2,4,6,8,10,12,14,16,18,20,22,24,26,28,-1,30,32,-1,-1,34,36,38,40,42,44,-1,46,-1,-1,48,50,52,54,56,58,60,62,64,66,68,70,-1,72,-1,-1,74,76,-1,-1,-1,-1,-1,-1,-1,-1,-1,-1,-1,-1,-1,-1,-1,-1,-1,-1,-1,-1,-1,-1,-1,-1,-1,-1,-1,-1,-1,-1],"split_conditions":[5.6006193E-1,5.221478E-1,5.5062616E-1,5.505396E-1,5.5725914E-1,3.5558724E-1,5.693749E-1,5.421976E-1,4.054463E-1,5E-1,3.3384758E-1,4.0740204E-1,4.9662638E-1,4.325093E-1,-6.581633E-2,2.4559592E-1,3.9976484E-1,-2.7551021E-2,-1.2715015E-1,6.1294204E-1,3.7064528E-1,6.221786E-1,6.452768E-1,5.12518E-1,3.2970744E-1,-1.3410902E-1,5.7097226E-1,4.5918347E-3,8.686225E-2,5.212722E-1,7.312383E-1,3.392477E-1,5.179768E-1,4.6194428E-1,7.8920484E-1,4.2526552E-1,5.8713615E-1,3.93098E-1,6.8120205E-1,3.9227146E-1,5.939224E-1,3.3673476E-2,4.573793E-1,-2.142857E-2,-9.708455E-2,6.987266E-1,4.6096236E-1,-2.9591838E-2,5.5782314E-2,-5.0554663E-2,-1.2918368E-1,-2.112245E-2,-8.5714296E-2,3.967347E-2,-1.3137755E-2,3.9125368E-2,-2.2234159E-2,6.355312E-2,-5.3061214E-3,5.4631088E-2,-1.6836734E-2,3.0612247E-2,-3.3045527E-2,-5.7653062E-2,4.8822608E-2,-1.7142858E-2,1.3793104E-2,-1.11734696E-1,-4.023324E-2,-2.973761E-2,5.102041E-2,-1.5306122E-2,3.061223E-3,-1.104144E-1,-8.163265E-3,-1.5306124E-2,4.285714E-2],"split_indices":[121,243,71,94,319,94,15,165,2,519,138,456,187,39,0,258,241,0,0,457,339,332,414,128,3,0,243,0,0,392,76,311,371,434,305,236,234,88,115,360,384,0,0,0,0,179,0,0,0,0,0,0,0,0,0,0,0,0,0,0,0,0,0,0,0,0,0,0,0,0,0,0,0,0,0,0,0],"split_type":[0,0,0,0,0,0,0,0,0,0,0,0,0,0,0,0,0,0,0,0,0,0,0,0,0,0,0,0,0,0,0,0,0,0,0,0,0,0,0,0,0,0,0,0,0,0,0,0,0,0,0,0,0,0,0,0,0,0,0,0,0,0,0,0,0,0,0,0,0,0,0,0,0,0,0,0,0],"sum_hessian":[1.618E3,1.213E3,4.05E2,4.33E2,7.8E2,3.94E2,1.1E1,4.05E2,2.8E1,4.31E2,3.49E2,1.5E1,3.79E2,8E0,3E0,2.65E2,1.4E2,1E0,2.7E1,3.69E2,6.2E1,2.68E2,8.1E1,8E0,7E0,2.45E2,1.34E2,1E0,7E0,1.6E1,2.49E2,2E1,1.2E2,1.22E2,2.47E2,1.7E1,4.5E1,4.3E1,2.25E2,6.7E1,1.4E1,4E0,4E0,1E0,6E0,1.32E2,2E0,8E0,8E0,2.4E2,9E0,9E0,1.1E1,4.9E1,7.1E1,1.04E2,1.8E1,2.33E2,1.4E1,1.2E1,5E0,7E0,3.8E1,5E0,3.8E1,1.39E2,8.6E1,5E0,6.2E1,6E0,8E0,2E0,2E0,1.3E2,2E0,1E0,1E0],"tree_param":{"num_deleted":"0","num_feature":"524","num_nodes":"77","size_leaf_vector":"0"}},{"base_weights":[-7.132908E-2,9.127861E-3,-2.4333127E-1,-8.5092686E-2,5.0814074E-2,-2.9318213E-1,-1.1251391E-1,-2.2453919E-1,-5.2448962E-2,1.4379066E-2,1.4595848E-1,-2.1813047E-1,-3.0831274E-1,-2.5946417E-1,-7.9461634E-2,-6.910454E-2,-2.628048E-1,8.106246E-2,-8.991075E-2,6.0296007E-2,-3.5018165E-2,2.1422753E-2,1.6249308E-1,-2.3408976E-1,-1.9522583E-2,-1.1135538E-2,-3.1021866E-1,-2.9170462E-1,-1.3028227E-1,-1.2213627E-1,-1.6005283E-2,-1.18327826E-1,1.6247815E-2,-3.084512E-2,-2.668271E-1,1.1700254E-1,-2.129042E-1,-1.1861246E-1,2.8321974E-2,-7.46623E-3,1.0283315E-1,9.955615E-2,-4.8662998E-2,1.5958531E-1,-7.490293E-2,1.6953607E-1,-7.8226425E-2,-2.3829259E-1,9.039789E-3,7.759186E-2,-8.7477766E-2,-6.1457366E-2,4.4754058E-2,-3.1633374E-1,-2.1216504E-1,-1.4825448E-1,-1.12244785E-2,-1.5198763E-1,2.2738036E-2,-5.630062E-2,1.2831505E-1,-6.5678716E-2,-1.4731137E-1,3.1407796E-2,-9.381433E-3,-2.998851E-1,-2.217737E-1,-1.9221136E-2,1.7845052E-1,1.4178683E-2,-1.3595013E-1,2.0351574E-1,-1.1396696E-2,-4.090032E-2,8.528363E-2,6.731681E-2,1.7837173E-1,4.3818136E-3,2.2028877E-1,-9.2020184E-2,-5.26268E-3,7.345997E-2,1.9830552E-1,-1.5904735E-1,5.6003805E-2,-5.3752095E-2,1.7357862E-1,-4.1326433E-3,-1.5094265E-1,-2.142857E-2,-1.0235131E-1,-2.378357E-1,-3.2197434E-1,-4.755102E-2,-2.180182E-1,-4.0804245E-2,-1.7118455E-1,-2.9204544E-2,1.4690998E-1,6.0229238E-2,-8.8315725E-2,1.841452E-1,2.4489814E-2],"categories":[],"categories_nodes":[],"categories_segments":[],"categories_sizes":[],"default_left":[1,1,1,1,1,1,1,1,1,1,1,1,1,1,1,1,1,1,1,1,1,1,1,1,1,1,1,0,1,1,1,1,1,0,1,1,0,1,1,1,1,1,1,1,1,1,1,0,0,0,1,0,0,1,1,0,0,1,1,1,1,0,0,0,0,0,0,0,0,0,0,0,0,0,0,0,0,0,0,0,0,0,0,0,0,0,0,0,0,0,0,0,0,0,0,0,0,0,0,0,0,0,0],"id":1,"left_children":[1,3,5,7,9,11,13,15,17,19,21,23,25,27,29,31,33,35,37,39,41,43,45,47,49,51,53,-1,55,57,59,61,63,-1,65,67,-1,69,71,73,75,77,79,81,83,85,87,-1,-1,-1,89,-1,-1,91,93,-1,-1,95,97,99,101,-1,-1,-1,-1,-1,-1,-1,-1,-1,-1,-1,-1,-1,-1,-1,-1,-1,-1,-1,-1,-1,-1,-1,-1,-1,-1,-1,-1,-1,-1,-1,-1,-1,-1,-1,-1,-1,-1,-1,-1,-1,-1],"loss_changes":[2.2407192E1,4.3405027E0,3.3320332E0,1.5313694E0,2.653307E0,3.5631943E-1,6.787964E-1,3.6249828E-1,1.3877237E0,1.2609457E0,4.3305874E-1,2.0462632E-1,1.7099762E-1,7.0282936E-2,3.2029438E-1,6.0741104E-2,3.9353132E-2,6.693865E-1,7.3635125E-1,8.3090234E-1,4.969581E-1,3.579771E-1,3.3029938E-1,6.448555E-2,4.6384137E-2,1.1187865E-2,1.16363525E-1,0E0,1.3314046E-2,3.105092E-1,2.921806E-1,4.058391E-3,2.6258836E-3,0E0,7.962227E-3,4.6381688E-1,0E0,4.025259E-1,3.0153334E-1,3.508009E-1,4.628576E-1,2.8630093E-1,4.5865422E-1,2.21152E-2,1.8514839E-1,1.7361307E-1,3.1703133E-2,0E0,0E0,0E0,1.7363001E-3,0E0,0E0,5.0056458E-2,9.866774E-3,0E0,0E0,1.18943214E-1,8.813798E-2,1.5081708E-1,5.925268E-2,0E0,0E0,0E0,0E0,0E0,0E0,0E0,0E0,0E0,0E0,0E0,0E0,0E0,0E0,0E0,0E0,0E0,0E0,0E0,0E0,0E0,0E0,0E0,0E0,0E0,0E0,0E0,0E0,0E0,0E0,0E0,0E0,0E0,0E0,0E0,0E0,0E0,0E0,0E0,0E0,0E0,0E0],"parents":[2147483647,0,0,1,1,2,2,3,3,4,4,5,5,6,6,7,7,8,8,9,9,10,10,11,11,12,12,13,13,14,14,15,15,16,16,17,17,18,18,19,19,20,20,21,21,22,22,23,23,24,24,25,25,26,26,28,28,29,29,30,30,31,31,32,32,34,34,35,35,37,37,38,38,39,39,40,40,41,41,42,42,43,43,44,44,45,45,46,46,50,50,53,53,54,54,57,57,58,58,59,59,60,60],"right_children":[2,4,6,8,10,12,14,16,18,20,22,24,26,28,30,32,34,36,38,40,42,44,46,48,50,52,54,-1,56,58,60,62,64,-1,66,68,-1,70,72,74,76,78,80,82,84,86,88,-1,-1,-1,90,-1,-1,92,94,-1,-1,96,98,100,102,-1,-1,-1,-1,-1,-1,-1,-1,-1,-1,-1,-1,-1,-1,-1,-1,-1,-1,-1,-1,-1,-1,-1,-1,-1,-1,-1,-1,-1,-1,-1,-1,-1,-1,-1,-1,-1,-1,-1,-1,-1,-1],"split_conditions":[4.9426925E-1,5.221478E-1,6.5731645E-1,5.1832235E-1,5E-1,4.0197334E-1,4.8167813E-1,3.7692428E-1,3.214392E-1,5.63065E-1,3.134315E-1,6.4901006E-1,2.0758314E-1,5.777655E-1,4.1273242E-1,4.9941772E-1,1.3901302E-1,4.8660988E-1,5.853636E-1,4.973489E-1,3.8575566E-1,6.0276055E-1,6.281874E-1,7.650212E-1,5.227034E-1,5.7925487E-1,6.5309656E-1,-8.751139E-2,5.509287E-1,6.9719326E-1,6.3050544E-1,4.747322E-1,7.381681E-1,-9.253536E-3,4.888147E-1,4.5558655E-1,-6.3871264E-2,3.9099172E-1,4.4538447E-1,5E-1,5.0085044E-1,5.628593E-1,4.2426136E-1,3.873219E-1,4.165352E-1,3.3729348E-1,5.039818E-1,-7.148778E-2,2.7119368E-3,2.3277558E-2,5.7198393E-1,-1.843721E-2,1.3426218E-2,2.9050958E-1,4.4588625E-1,-4.4476345E-2,-3.3673437E-3,3.7067476E-1,6.287247E-1,4.0079415E-1,7.2549784E-1,-1.9703615E-2,-4.4193413E-2,9.4223395E-3,-2.81443E-3,-8.996553E-2,-6.653211E-2,-5.766341E-3,5.353516E-2,4.253605E-3,-4.078504E-2,6.1054725E-2,-3.4190088E-3,-1.2270097E-2,2.558509E-2,2.0195043E-2,5.351152E-2,1.3145441E-3,6.6086635E-2,-2.7606057E-2,-1.578804E-3,2.203799E-2,5.9491657E-2,-4.7714207E-2,1.6801143E-2,-1.6125629E-2,5.2073587E-2,-1.239793E-3,-4.5282796E-2,-6.4285714E-3,-3.0705394E-2,-7.1350716E-2,-9.659231E-2,-1.4265307E-2,-6.5405466E-2,-1.2241274E-2,-5.135537E-2,-8.761363E-3,4.4072997E-2,1.8068772E-2,-2.649472E-2,5.5243563E-2,7.3469444E-3],"split_indices":[509,243,267,293,518,13,122,449,263,319,276,513,94,233,216,421,12,505,93,283,277,460,261,26,0,0,187,0,0,18,108,35,2,0,187,397,0,72,490,521,299,93,120,173,247,166,3,0,0,0,0,0,0,169,0,0,0,35,29,441,27,0,0,0,0,0,0,0,0,0,0,0,0,0,0,0,0,0,0,0,0,0,0,0,0,0,0,0,0,0,0,0,0,0,0,0,0,0,0,0,0,0,0],"split_type":[0,0,0,0,0,0,0,0,0,0,0,0,0,0,0,0,0,0,0,0,0,0,0,0,0,0,0,0,0,0,0,0,0,0,0,0,0,0,0,0,0,0,0,0,0,0,0,0,0,0,0,0,0,0,0,0,0,0,0,0,0,0,0,0,0,0,0,0,0,0,0,0,0,0,0,0,0,0,0,0,0,0,0,0,0,0,0,0,0,0,0,0,0,0,0,0,0,0,0,0,0,0,0],"sum_hessian":[1.618E3,1.103E3,5.15E2,3.38E2,7.65E2,3.72E2,1.43E2,6.3E1,2.75E2,5.54E2,2.11E2,6.5E1,3.07E2,2.5E1,1.18E2,1.3E1,5E1,6E1,2.15E2,2.87E2,2.67E2,2.5E1,1.86E2,6E1,5E0,2E0,3.05E2,1.9E1,6E0,7E1,4.8E1,8E0,5E0,1E0,4.9E1,5.4E1,6E0,1.73E2,4.2E1,1.11E2,1.76E2,2.4E1,2.43E2,1E1,1.5E1,1.81E2,5E0,5.9E1,1E0,2E0,3E0,1E0,1E0,2.85E2,2E1,5E0,1E0,5.8E1,1.2E1,3.8E1,1E1,4E0,4E0,3E0,2E0,2.5E1,2.4E1,1.7E1,3.7E1,2E1,1.53E2,7E0,3.5E1,8.2E1,2.9E1,1.21E2,5.5E1,1.4E1,1E1,1.21E2,1.22E2,4E0,6E0,9E0,6E0,3E0,1.78E2,3E0,2E0,1E0,2E0,2.2E1,2.63E2,1E0,1.9E1,9E0,4.9E1,9E0,3E0,8E0,3E1,6E0,4E0],"tree_param":{"num_deleted":"0","num_feature":"524","num_nodes":"103","size_leaf_vector":"0"}},{"base_weights":[-5.0237637E-2,1.1597574E-2,-1.6313681E-1,6.185661E-2,-3.516561E-2,-1.9825397E-1,-6.4567216E-2,7.499712E-2,-2.1678354E-1,-6.567164E-2,7.5902212E-3,-3.0864341E-2,-2.0349896E-1,3.2155547E-2,-1.04270525E-1,3.621896E-2,1.1893415E-1,-1.0691869E-1,-2.2791733E-1,-7.7682674E-2,4.0050138E-2,7.125282E-2,-3.322677E-2,-9.314109E-2,1.481128E-1,-1.3071051E-1,-2.1258831E-1,1.8922652E-1,-3.069531E-2,-6.442226E-2,-1.8910433E-1,-3.0300006E-2,6.213114E-2,7.517574E-2,1.5368953E-1,-1.0880545E-1,-3.3353385E-2,1.322184E-1,-6.61423E-2,1.2077599E-2,1.4344053E-1,5.676081E-3,-9.456785E-2,-1.3848099E-1,-1.1037004E-2,2.0159647E-2,1.8404396E-1,-1.526472E-1,8.847446E-2,-2.2828668E-1,-1.7199053E-1,2.7566767E-1,-4.212844E-3,-6.580328E-2,1.3825777E-1,-8.788059E-2,6.6057354E-2,9.8415405E-2,-2.0079935E-1,-6.287518E-2,5.9167963E-2,-4.4700142E-2,7.4553266E-2,1.816166E-2,1.4698999E-1,-4.9046952E-2,1.6079691E-1,-2.6660293E-2,-1.2174071E-1,-5.3710256E-2,1.0105086E-1,-2.177006E-2,1.6446744E-1,7.850367E-2,-1.20899595E-1,1.0834904E-1,-4.0800083E-2,1.7825565E-1,6.6051364E-2,2.7235705E-2,-1.2954457E-1,-1.2078147E-1,1.8883683E-2,-1.642628E-2,5.2600503E-3,-1.8110426E-1,-3.778276E-2,1.0561529E-1,9.95557E-3,-3.930798E-2,-2.2960953E-1,-2.1402524E-1,-1.6202895E-1,3.1165577E-2,-7.2863266E-2,-1.4031334E-1,-1.151152E-3,1.9111948E-1,6.404705E-2,7.242552E-2,-1.0269341E-1,1.5233675E-1,2.0371255E-2,-1.4974487E-1,-2.264975E-1],"categories":[],"categories_nodes":[],"categories_segments":[],"categories_sizes":[],"default_left":[1,1,1,1,1,1,1,1,1,1,1,1,1,1,1,1,1,0,0,1,1,1,1,1,1,1,1,1,1,1,1,1,1,1,1,1,1,1,1,1,1,1,1,0,1,0,0,1,1,1,1,0,1,1,1,1,1,0,1,0,0,0,0,0,0,0,0,0,0,0,0,0,0,0,0,0,0,0,0,0,0,0,0,0,0,0,0,0,0,0,0,0,0,0,0,0,0,0,0,0,0,0,0,0,0],"id":2,"left_children":[1,3,5,7,9,11,13,15,17,19,21,23,25,27,29,31,33,-1,-1,35,37,39,41,43,45,47,49,51,53,55,57,59,61,63,65,67,69,71,73,75,77,79,81,-1,83,-1,-1,85,87,89,91,-1,93,95,97,99,101,-1,103,-1,-1,-1,-1,-1,-1,-1,-1,-1,-1,-1,-1,-1,-1,-1,-1,-1,-1,-1,-1,-1,-1,-1,-1,-1,-1,-1,-1,-1,-1,-1,-1,-1,-1,-1,-1,-1,-1,-1,-1,-1,-1,-1,-1,-1,-1],"loss_changes":[1.1304365E1,2.4629107E0,1.9706297E0,1.8653023E0,7.0873904E-1,3.6421585E-1,5.870654E-1,8.186264E-1,3.7652254E-3,4.0564692E-1,5.922306E-1,1.6984098E-1,2.4280739E-1,4.5005044E-1,3.529092E-1,4.4658464E-1,3.3215618E-1,0E0,0E0,3.895713E-1,3.3173516E-1,3.7845105E-1,3.322385E-1,3.9420083E-2,1.467976E-2,2.442987E-1,1.914463E-1,2.1853596E-1,2.048406E-1,2.3536772E-1,1.3408828E-1,2.1647394E-1,2.5016785E-1,4.1496164E-1,1.8800211E-1,1.7420352E-1,3.310174E-1,9.2968106E-2,1.362178E-1,2.589512E-1,9.5998466E-2,2.542446E-1,1.6287544E-1,0E0,5.2554975E-4,0E0,0E0,1.369803E-1,5.6779347E-3,5.5472374E-2,9.288549E-3,0E0,1.4414543E-2,1.3472101E-1,1.1296794E-2,1.5941107E-1,4.4197936E-2,0E0,9.379387E-3,0E0,0E0,0E0,0E0,0E0,0E0,0E0,0E0,0E0,0E0,0E0,0E0,0E0,0E0,0E0,0E0,0E0,0E0,0E0,0E0,0E0,0E0,0E0,0E0,0E0,0E0,0E0,0E0,0E0,0E0,0E0,0E0,0E0,0E0,0E0,0E0,0E0,0E0,0E0,0E0,0E0,0E0,0E0,0E0,0E0,0E0],"parents":[2147483647,0,0,1,1,2,2,3,3,4,4,5,5,6,6,7,7,8,8,9,9,10,10,11,11,12,12,13,13,14,14,15,15,16,16,19,19,20,20,21,21,22,22,23,23,24,24,25,25,26,26,27,27,28,28,29,29,30,30,31,31,32,32,33,33,34,34,35,35,36,36,37,37,38,38,39,39,40,40,41,41,42,42,44,44,47,47,48,48,49,49,50,50,52,52,53,53,54,54,55,55,56,56,58,58],"right_children":[2,4,6,8,10,12,14,16,18,20,22,24,26,28,30,32,34,-1,-1,36,38,40,42,44,46,48,50,52,54,56,58,60,62,64,66,68,70,72,74,76,78,80,82,-1,84,-1,-1,86,88,90,92,-1,94,96,98,100,102,-1,104,-1,-1,-1,-1,-1,-1,-1,-1,-1,-1,-1,-1,-1,-1,-1,-1,-1,-1,-1,-1,-1,-1,-1,-1,-1,-1,-1,-1,-1,-1,-1,-1,-1,-1,-1,-1,-1,-1,-1,-1,-1,-1,-1,-1,-1,-1],"split_conditions":[4.8103797E-1,5.5560493E-1,6.572467E-1,4.754047E-1,6.301483E-1,3.5474288E-1,4.5075804E-1,4.1447854E-1,2.9040158E-1,6.414918E-1,3.5421044E-1,5.7125E-1,4.0063158E-1,3.6837643E-1,5.783837E-1,5.886582E-1,5.061759E-1,-3.207561E-2,-6.83752E-2,6.077355E-1,4.2465213E-1,3.671165E-1,6.1133313E-1,5.408704E-1,5.154569E-1,6.8344796E-1,5.8516604E-1,4.2182606E-1,7.9544413E-1,5.807911E-1,3.4676874E-1,6.470046E-1,5.473654E-1,3.800337E-1,3.6810446E-1,4.6373525E-1,7.9740965E-1,3.086648E-1,5.218226E-1,5.605302E-1,5.068202E-1,5.44397E-1,4.2679998E-1,-4.15443E-2,6.378499E-1,6.0478942E-3,5.521319E-2,6.906223E-1,6.108653E-1,2.1014881E-1,5.269636E-1,8.2700305E-2,6.344997E-1,4.1203284E-1,6.621548E-1,2.4423891E-1,2.6406133E-1,2.9524622E-2,4.484653E-1,-1.8862555E-2,1.775039E-2,-1.3410043E-2,2.236598E-2,5.4484983E-3,4.4097E-2,-1.4714086E-2,4.8239075E-2,-7.998088E-3,-3.6522217E-2,-1.6113078E-2,3.031526E-2,-6.5310183E-3,4.9340233E-2,2.35511E-2,-3.626988E-2,3.2504715E-2,-1.2240025E-2,5.3476695E-2,1.981541E-2,8.170712E-3,-3.8863372E-2,-3.6234442E-2,5.665105E-3,-4.9278843E-3,1.5780152E-3,-5.433128E-2,-1.1334828E-2,3.168459E-2,2.9866712E-3,-1.1792395E-2,-6.888286E-2,-6.4207576E-2,-4.8608687E-2,9.349674E-3,-2.185898E-2,-4.2094003E-2,-3.453456E-4,5.7335846E-2,1.9214116E-2,2.1727657E-2,-3.0808024E-2,4.5701027E-2,6.1113765E-3,-4.4923462E-2,-6.794925E-2],"split_indices":[0,319,267,368,469,509,190,404,101,165,366,225,94,273,503,243,142,0,0,115,162,48,484,60,0,5,200,16,482,397,17,300,457,152,426,426,353,159,321,490,498,249,94,0,5,0,0,19,4,487,40,0,0,92,10,173,6,0,441,0,0,0,0,0,0,0,0,0,0,0,0,0,0,0,0,0,0,0,0,0,0,0,0,0,0,0,0,0,0,0,0,0,0,0,0,0,0,0,0,0,0,0,0,0,0],"split_type":[0,0,0,0,0,0,0,0,0,0,0,0,0,0,0,0,0,0,0,0,0,0,0,0,0,0,0,0,0,0,0,0,0,0,0,0,0,0,0,0,0,0,0,0,0,0,0,0,0,0,0,0,0,0,0,0,0,0,0,0,0,0,0,0,0,0,0,0,0,0,0,0,0,0,0,0,0,0,0,0,0,0,0,0,0,0,0,0,0,0,0,0,0,0,0,0,0,0,0,0,0,0,0,0,0],"sum_hessian":[1.618E3,1.046E3,5.72E2,5.04E2,5.42E2,4.21E2,1.51E2,4.82E2,2.2E1,3.16E2,2.26E2,1.3E1,4.08E2,4.4E1,1.07E2,2.57E2,2.25E2,3E0,1.9E1,2.84E2,3.2E1,8.8E1,1.38E2,1E1,3E0,4.7E1,3.61E2,1.2E1,3.2E1,7.4E1,3.3E1,7.2E1,1.85E2,1.01E2,1.24E2,1.66E2,1.18E2,1.7E1,1.5E1,4.9E1,3.9E1,8.5E1,5.3E1,6E0,4E0,1E0,2E0,4.3E1,4E0,2.57E2,1.04E2,8E0,4E0,2.7E1,5E0,6.3E1,1.1E1,1E0,3.2E1,5.3E1,1.9E1,1.9E1,1.66E2,5.7E1,4.4E1,4E0,1.2E2,2.3E1,1.43E2,1.03E2,1.5E1,3E0,1.4E1,4E0,1.1E1,1.7E1,3.2E1,2.6E1,1.3E1,7.4E1,1.1E1,4.3E1,1E1,3E0,1E0,3.4E1,9E0,3E0,1E0,2E0,2.55E2,1.6E1,8.8E1,3E0,1E0,1.2E1,1.5E1,2E0,3E0,5E0,5.8E1,3E0,8E0,1.3E1,1.9E1],"tree_param":{"num_deleted":"0","num_feature":"524","num_nodes":"105","size_leaf_vector":"0"}},{"base_weights":[-3.5241645E-2,1.2500409E-2,-1.08291596E-1,3.4092125E-2,-3.7028585E-2,-5.3512223E-2,-1.4863528E-1,4.839752E-2,-5.282911E-2,1.3836728E-2,-7.236612E-2,-3.6160305E-2,-1.23214245E-1,-2.7982764E-2,-1.519273E-1,1.5043927E-2,8.6705156E-2,6.816199E-2,-7.939174E-2,9.417721E-2,-2.8983979E-2,1.3017777E-1,-7.783329E-2,-5.838819E-2,2.6931163E-2,-1.578382E-2,-1.4434958E-1,4.2790722E-2,-1.21469095E-1,-1.5385771E-1,1.5130895E-2,-7.791744E-2,3.0424803E-2,-1.7717259E-2,9.684112E-2,1.5247464E-1,-1.4535606E-2,-1.441822E-2,-1.0080928E-1,1.1427824E-1,-4.882555E-2,-8.930396E-2,2.6398888E-2,2.0020899E-1,1.6753962E-2,-1.0094855E-1,-3.519413E-2,-6.480582E-2,1.5737016E-1,-3.605173E-3,1.3291119E-1,-7.718669E-2,6.1056387E-2,-1.110721E-1,-1.8404129E-1,1.3884795E-2,7.67037E-2,-2.9451892E-2,-1.3711041E-1,-1.341766E-1,-1.7013943E-1,4.2918555E-2,-4.8009872E-2,5.323882E-2,-1.219162E-1,5.472265E-2,-2.724574E-2,-5.5818558E-2,8.8231586E-2,-1.1582668E-1,1.0078601E-1,1.6733187E-1,1.680842E-2,-6.721389E-2,5.158546E-2,-3.0326203E-2,9.11384E-2,-1.3132834E-1,-3.320474E-2,1.8056802E-1,7.673803E-2,-2.9907972E-3,-5.7394344E-2,-1.0503329E-1,3.8662165E-2,-5.3480506E-2,7.1101435E-2,2.0659894E-2,4.4710487E-3,-1.1179376E-1,-2.1594688E-3,-8.1122644E-2,1.3351244E-2,2.490825E-2,-7.715922E-2,-8.0385774E-2,3.2498397E-2,4.254224E-2,1.6834824E-1,-3.3238895E-2,-1.1005485E-1,1.3456483E-2,8.830416E-2,-2.2157267E-2,-1.136397E-1,-1.9862884E-1,-7.9680696E-2,1.7035445E-2,6.10588E-3,-9.718925E-2,-1.4987102E-1,-1.7216381E-1,-3.2964922E-2,7.1028024E-3,5.2489538E-2],"categories":[],"categories_nodes":[],"categories_segments":[],"categories_sizes":[],"default_left":[1,1,1,1,1,1,1,1,1,1,1,1,1,1,1,1,1,1,1,1,1,1,1,1,1,1,1,1,1,1,1,1,1,1,1,1,1,1,1,1,1,1,1,0,1,1,1,1,0,1,1,1,1,1,1,1,0,0,0,1,1,1,0,0,0,0,0,0,0,0,0,0,0,0,0,0,0,0,0,0,0,0,0,0,0,0,0,0,0,0,0,0,0,0,0,0,0,0,0,0,0,0,0,0,0,0,0,0,0,0,0,0,0,0,0],"id":3,"left_children":[1,3,5,7,9,11,13,15,17,19,21,23,25,27,29,31,33,35,37,39,41,43,45,47,49,51,53,55,57,59,61,63,65,67,69,71,73,75,77,79,81,83,85,-1,87,89,91,93,-1,95,97,99,101,103,105,107,-1,-1,-1,109,111,113,-1,-1,-1,-1,-1,-1,-1,-1,-1,-1,-1,-1,-1,-1,-1,-1,-1,-1,-1,-1,-1,-1,-1,-1,-1,-1,-1,-1,-1,-1,-1,-1,-1,-1,-1,-1,-1,-1,-1,-1,-1,-1,-1,-1,-1,-1,-1,-1,-1,-1,-1,-1,-1],"loss_changes":[5.6477046E0,1.04929E0,1.4064479E0,8.5182804E-1,5.3664273E-1,3.2572812E-1,1.4191532E-1,7.4870384E-1,3.1715417E-1,4.2587864E-1,2.0502436E-1,3.1009823E-1,1.2033278E-1,7.797764E-2,1.1777878E-1,4.5276618E-1,2.906649E-1,1.2772048E-1,1.0987228E-1,1.2918335E-1,2.729537E-1,3.6361746E-2,1.6597307E-1,2.3589778E-1,1.8818118E-1,5.1894832E-2,3.899598E-2,5.7969866E-3,3.1581968E-3,9.060764E-2,1.0833185E-2,2.6617268E-1,3.8123518E-1,1.0584468E-1,2.2057247E-1,1.5328035E-2,3.8298704E-2,3.802693E-2,1.19432926E-1,8.070776E-2,2.1848353E-3,8.256087E-2,1.5734747E-1,0E0,5.155732E-5,1.186825E-1,1.3931933E-1,1.7813742E-1,0E0,1.3012688E-1,3.446941E-2,5.008798E-3,5.296694E-3,3.6461055E-3,1.3098061E-2,1.85268E-5,0E0,0E0,0E0,8.121586E-2,4.708624E-2,9.983452E-4,0E0,0E0,0E0,0E0,0E0,0E0,0E0,0E0,0E0,0E0,0E0,0E0,0E0,0E0,0E0,0E0,0E0,0E0,0E0,0E0,0E0,0E0,0E0,0E0,0E0,0E0,0E0,0E0,0E0,0E0,0E0,0E0,0E0,0E0,0E0,0E0,0E0,0E0,0E0,0E0,0E0,0E0,0E0,0E0,0E0,0E0,0E0,0E0,0E0,0E0,0E0,0E0,0E0],"parents":[2147483647,0,0,1,1,2,2,3,3,4,4,5,5,6,6,7,7,8,8,9,9,10,10,11,11,12,12,13,13,14,14,15,15,16,16,17,17,18,18,19,19,20,20,21,21,22,22,23,23,24,24,25,25,26,26,27,27,28,28,29,29,30,30,31,31,32,32,33,33,34,34,35,35,36,36,37,37,38,38,39,39,40,40,41,41,42,42,44,44,45,45,46,46,47,47,49,49,50,50,51,51,52,52,53,53,54,54,55,55,59,59,60,60,61,61],"right_children":[2,4,6,8,10,12,14,16,18,20,22,24,26,28,30,32,34,36,38,40,42,44,46,48,50,52,54,56,58,60,62,64,66,68,70,72,74,76,78,80,82,84,86,-1,88,90,92,94,-1,96,98,100,102,104,106,108,-1,-1,-1,110,112,114,-1,-1,-1,-1,-1,-1,-1,-1,-1,-1,-1,-1,-1,-1,-1,-1,-1,-1,-1,-1,-1,-1,-1,-1,-1,-1,-1,-1,-1,-1,-1,-1,-1,-1,-1,-1,-1,-1,-1,-1,-1,-1,-1,-1,-1,-1,-1,-1,-1,-1,-1,-1,-1],"split_conditions":[4.6073347E-1,5.047889E-1,4.1091886E-1,5E-1,3.123306E-1,4.808441E-1,3.1410033E-1,6.277201E-1,3.4833026E-1,5.6706876E-1,1.7838293E-1,6.054127E-1,3.140476E-1,6.411966E-1,6.5538496E-1,5.1250446E-1,1.8898147E-1,6.151743E-1,3.4761134E-1,7.26503E-1,5.545542E-1,5.639583E-1,5.3948456E-1,7.09582E-1,7.409981E-1,4.0613544E-1,3.8569155E-1,5.99645E-1,4.7855884E-1,4.7424096E-1,6.761405E-1,4.482071E-1,4.954076E-1,8.093677E-1,5.588544E-1,6.139139E-1,6.5211624E-1,6.1281484E-1,4.605441E-1,6.8316525E-1,6.3305974E-1,5.910598E-1,3.8805035E-1,6.00627E-2,6.064964E-1,6.983243E-1,6.156131E-1,3.6240897E-1,4.721105E-2,5.553516E-1,3.7482825E-1,3.6617827E-1,3.973933E-1,3.8257417E-1,5.958784E-1,3.8775736E-1,2.301111E-2,-8.835568E-3,-4.1133124E-2,4.4423014E-1,9.019076E-1,4.347019E-1,-1.4402962E-2,1.5971648E-2,-3.657486E-2,1.6416796E-2,-8.173722E-3,-1.6745567E-2,2.6469477E-2,-3.4748007E-2,3.0235803E-2,5.0199565E-2,5.0425264E-3,-2.016417E-2,1.5475638E-2,-9.097861E-3,2.734152E-2,-3.9398506E-2,-9.9614225E-3,5.417041E-2,2.302141E-2,-8.972392E-4,-1.7218305E-2,-3.1509988E-2,1.159865E-2,-1.6044153E-2,2.1330431E-2,6.1979685E-3,1.3413146E-3,-3.353813E-2,-6.478407E-4,-2.4336794E-2,4.0053735E-3,7.4724755E-3,-2.3147766E-2,-2.4115734E-2,9.74952E-3,1.2762673E-2,5.0504472E-2,-9.971669E-3,-3.301646E-2,4.0369453E-3,2.6491249E-2,-6.6471803E-3,-3.4091912E-2,-5.9588656E-2,-2.390421E-2,5.1106336E-3,1.831764E-3,-2.9156776E-2,-4.4961307E-2,-5.1649146E-2,-9.889477E-3,2.130841E-3,1.5746862E-2],"split_indices":[509,41,385,519,366,114,203,410,110,252,400,392,412,41,398,177,152,107,59,208,29,0,93,123,2,134,67,4,0,34,0,157,412,345,504,5,2,15,48,504,2,274,239,0,0,338,384,467,0,175,216,3,1,32,186,1,0,0,0,469,250,0,0,0,0,0,0,0,0,0,0,0,0,0,0,0,0,0,0,0,0,0,0,0,0,0,0,0,0,0,0,0,0,0,0,0,0,0,0,0,0,0,0,0,0,0,0,0,0,0,0,0,0,0,0],"split_type":[0,0,0,0,0,0,0,0,0,0,0,0,0,0,0,0,0,0,0,0,0,0,0,0,0,0,0,0,0,0,0,0,0,0,0,0,0,0,0,0,0,0,0,0,0,0,0,0,0,0,0,0,0,0,0,0,0,0,0,0,0,0,0,0,0,0,0,0,0,0,0,0,0,0,0,0,0,0,0,0,0,0,0,0,0,0,0,0,0,0,0,0,0,0,0,0,0,0,0,0,0,0,0,0,0,0,0,0,0,0,0,0,0,0,0],"sum_hessian":[1.618E3,9.79E2,6.39E2,6.82E2,2.97E2,2.72E2,3.67E2,5.86E2,9.6E1,1.22E2,1.75E2,2.19E2,5.3E1,1E1,3.57E2,3.14E2,2.72E2,1.7E1,7.9E1,4.2E1,8E1,4E0,1.71E2,1.62E2,5.7E1,9E0,4.4E1,6E0,4E0,3.53E2,4E0,4.4E1,2.7E2,2.4E1,2.48E2,8E0,9E0,2E1,5.9E1,3.7E1,5E0,3.8E1,4.2E1,2E0,2E0,1.1E2,6.1E1,1.58E2,4E0,4.5E1,1.2E1,5E0,4E0,2.6E1,1.8E1,4E0,2E0,1E0,3E0,1.64E2,1.89E2,3E0,1E0,1.1E1,3.3E1,1.9E2,8E1,1.8E1,6E0,4E0,2.44E2,7E0,1E0,5E0,4E0,1.8E1,2E0,4E1,1.9E1,1.2E1,2.5E1,1E0,4E0,3.4E1,4E0,1.5E1,2.7E1,1E0,1E0,9.9E1,1.1E1,3.1E1,3E1,1.9E1,1.39E2,1.4E1,3.1E1,4E0,8E0,3E0,2E0,2E0,2E0,1E0,2.5E1,1.5E1,3E0,2E0,2E0,5.1E1,1.13E2,1.86E2,3E0,1E0,2E0],"tree_param":{"num_deleted":"0","num_feature":"524","num_nodes":"115","size_leaf_vector":"0"}},{"base_weights":[-2.4754778E-2,2.3096453E-3,-9.092357E-2,-5.415761E-2,1.911353E-2,-2.9310055E-2,-1.02920845E-1,-6.5416045E-2,3.9330278E-2,2.9244889E-2,-3.5153396E-2,-1.0591044E-2,-1.7164569E-1,-1.046108E-1,4.9141794E-2,-8.838063E-2,-3.040145E-2,-1.5679462E-2,9.938925E-2,8.061007E-2,1.5019329E-2,-1.7705686E-2,-1.0751953E-1,-3.859361E-2,6.660497E-2,-1.0547551E-1,1.1544755E-1,1.0776504E-1,-2.5862047E-2,-1.3132708E-1,-7.364446E-2,-3.9583296E-2,1.4278843E-1,2.8218362E-2,-6.3104585E-2,1.2351639E-1,8.192278E-3,-1.0036813E-1,8.701299E-2,3.6181636E-2,-2.3144342E-2,1.02355756E-1,-2.773255E-2,-1.8108224E-2,-1.2701719E-1,-5.361758E-2,3.9145112E-2,-8.284775E-2,1.1198222E-1,-1.1774999E-1,-8.5430466E-2,3.8003922E-3,-4.2593464E-2,-3.9081343E-2,-1.4196907E-1,4.1256994E-3,-7.990733E-2,1.26576265E-2,-6.5483056E-2,5.799191E-2,-2.3496553E-2,1.5122278E-1,7.5223945E-2,1.5236318E-2,-6.4699203E-3,1.547322E-1,6.8439014E-2,7.542523E-2,2.0811662E-2,4.4192616E-2,-4.7323216E-2,1.676505E-1,1.6589856E-2,-7.119748E-2,-5.3033917E-3,-3.415315E-2,9.321083E-3,-1.4147396E-1,-2.6593164E-2,-6.752773E-2,7.980502E-3,5.4382674E-2,1.6078526E-2,-1.1640713E-2,-9.773934E-2,1.4868514E-1,3.214697E-2,-9.5395125E-2,-1.2954585E-1,-8.932632E-2,2.3607083E-2],"categories":[],"categories_nodes":[],"categories_segments":[],"categories_sizes":[],"default_left":[1,1,1,1,1,1,1,1,1,1,1,1,0,1,1,1,1,1,1,1,1,1,1,1,1,1,0,0,1,1,1,1,0,1,0,1,1,0,1,1,1,1,1,1,1,1,1,1,1,1,1,0,0,0,0,0,0,0,0,0,0,0,0,0,0,0,0,0,0,0,0,0,0,0,0,0,0,0,0,0,0,0,0,0,0,0,0,0,0,0,0],"id":4,"left_children":[1,3,5,7,9,11,13,15,17,19,21,23,-1,25,27,29,31,33,35,37,39,41,43,45,47,49,-1,-1,51,53,55,57,-1,59,-1,61,63,-1,65,67,69,71,73,75,77,79,81,83,85,87,89,-1,-1,-1,-1,-1,-1,-1,-1,-1,-1,-1,-1,-1,-1,-1,-1,-1,-1,-1,-1,-1,-1,-1,-1,-1,-1,-1,-1,-1,-1,-1,-1,-1,-1,-1,-1,-1,-1,-1,-1],"loss_changes":[2.899548E0,1.0922348E0,3.444047E-1,2.8044015E-1,4.8869863E-1,2.0600393E-1,1.0613346E-1,1.8707967E-1,9.73694E-2,5.4535174E-1,1.7486358E-1,1.5388858E-1,0E0,8.619785E-2,2.477187E-2,8.0195546E-2,1.567213E-1,3.509046E-2,2.9792637E-2,1.9645727E-1,4.74917E-1,1.4007628E-1,4.4769317E-2,6.2831976E-2,1.3813078E-1,8.540487E-2,0E0,0E0,1.6507558E-3,2.8810382E-2,5.293262E-2,1.2395434E-1,0E0,1.5220241E-2,0E0,3.3425242E-3,5.1170215E-4,0E0,1.8688726E-1,2.264297E-1,3.43999E-1,4.7619276E-2,1.0295988E-1,2.9589513E-3,2.817756E-2,3.8239792E-2,2.2889134E-3,4.1641705E-3,3.9173022E-2,5.040145E-2,6.625271E-2,0E0,0E0,0E0,0E0,0E0,0E0,0E0,0E0,0E0,0E0,0E0,0E0,0E0,0E0,0E0,0E0,0E0,0E0,0E0,0E0,0E0,0E0,0E0,0E0,0E0,0E0,0E0,0E0,0E0,0E0,0E0,0E0,0E0,0E0,0E0,0E0,0E0,0E0,0E0,0E0],"parents":[2147483647,0,0,1,1,2,2,3,3,4,4,5,5,6,6,7,7,8,8,9,9,10,10,11,11,13,13,14,14,15,15,16,16,17,17,18,18,19,19,20,20,21,21,22,22,23,23,24,24,25,25,28,28,29,29,30,30,31,31,33,33,35,35,36,36,38,38,39,39,40,40,41,41,42,42,43,43,44,44,45,45,46,46,47,47,48,48,49,49,50,50],"right_children":[2,4,6,8,10,12,14,16,18,20,22,24,-1,26,28,30,32,34,36,38,40,42,44,46,48,50,-1,-1,52,54,56,58,-1,60,-1,62,64,-1,66,68,70,72,74,76,78,80,82,84,86,88,90,-1,-1,-1,-1,-1,-1,-1,-1,-1,-1,-1,-1,-1,-1,-1,-1,-1,-1,-1,-1,-1,-1,-1,-1,-1,-1,-1,-1,-1,-1,-1,-1,-1,-1,-1,-1,-1,-1,-1,-1],"split_conditions":[3.6153328E-1,4.6947604E-1,3.6765665E-1,6.553359E-1,5E-1,6.525945E-1,8.5648763E-1,5.6509185E-1,4.8850864E-1,2.8081343E-1,6.0192084E-1,7.749481E-1,-5.1493708E-2,8.2055116E-1,6.0061526E-1,4.2864764E-1,6.8448937E-1,4.317628E-1,7.0224726E-1,3.4071553E-1,4.8931956E-1,4.0535682E-1,4.6169728E-1,7.430533E-1,2.4459752E-1,4.306338E-1,3.4634266E-2,3.2329515E-2,6.2789786E-1,1.8988216E-1,2.2940663E-1,6.161293E-1,4.283653E-2,4.0578234E-1,-1.8931376E-2,5.435508E-1,5.6491053E-1,-3.011044E-2,6.10595E-1,4.715014E-1,4.5473024E-1,5.4476416E-1,4.181609E-1,4.264979E-1,7.479806E-1,7.371216E-1,3.5039276E-1,3.8374233E-1,3.8435203E-1,4.290313E-1,6.880938E-1,1.1401176E-3,-1.277804E-2,-1.1724403E-2,-4.2590722E-2,1.2377099E-3,-2.39722E-2,3.797288E-3,-1.9644918E-2,1.7397573E-2,-7.0489664E-3,4.5366835E-2,2.2567185E-2,4.570896E-3,-1.9409761E-3,4.641966E-2,2.0531705E-2,2.262757E-2,6.243499E-3,1.3257786E-2,-1.4196965E-2,5.0295155E-2,4.976957E-3,-2.1359244E-2,-1.5910176E-3,-1.0245945E-2,2.7963251E-3,-4.244219E-2,-7.977949E-3,-2.0258319E-2,2.3941507E-3,1.6314803E-2,4.823558E-3,-3.492214E-3,-2.9321803E-2,4.4605546E-2,9.644092E-3,-2.8618539E-2,-3.8863756E-2,-2.6797898E-2,7.082125E-3],"split_indices":[138,243,124,179,519,65,148,122,438,366,184,431,0,133,0,187,123,350,14,442,106,228,77,378,422,8,0,0,0,411,309,296,0,220,0,22,0,0,332,484,136,6,389,0,10,513,8,0,268,404,339,0,0,0,0,0,0,0,0,0,0,0,0,0,0,0,0,0,0,0,0,0,0,0,0,0,0,0,0,0,0,0,0,0,0,0,0,0,0,0,0],"split_type":[0,0,0,0,0,0,0,0,0,0,0,0,0,0,0,0,0,0,0,0,0,0,0,0,0,0,0,0,0,0,0,0,0,0,0,0,0,0,0,0,0,0,0,0,0,0,0,0,0,0,0,0,0,0,0,0,0,0,0,0,0,0,0,0,0,0,0,0,0,0,0,0,0,0,0,0,0,0,0,0,0,0,0,0,0,0,0,0,0,0,0],"sum_hessian":[1.618E3,1.149E3,4.69E2,2.63E2,8.86E2,7.7E1,3.92E2,2.35E2,2.8E1,7.47E2,1.39E2,6.9E1,8E0,3.88E2,4E0,1.41E2,9.4E1,1.5E1,1.3E1,1.61E2,5.86E2,1.13E2,2.6E1,5.1E1,1.8E1,3.87E2,1E0,2E0,2E0,3.4E1,1.07E2,9E1,4E0,8E0,7E0,1E1,3E0,5E0,1.56E2,3.77E2,2.09E2,8E0,1.05E2,5E0,2.1E1,4.3E1,8E0,4E0,1.4E1,2.37E2,1.5E2,1E0,1E0,4E0,3E1,8E0,9.9E1,3E1,6E1,5E0,3E0,5E0,5E0,2E0,1E0,3.2E1,1.24E2,1.05E2,2.72E2,5.5E1,1.54E2,4E0,4E0,3.5E1,7E1,3E0,2E0,1.8E1,3E0,3.5E1,8E0,4E0,4E0,1E0,3E0,9E0,5E0,8.5E1,1.52E2,1.45E2,5E0],"tree_param":{"num_deleted":"0","num_feature":"524","num_nodes":"91","size_leaf_vector":"0"}},{"base_weights":[-1.7332988E-2,-4.6058737E-2,1.6850784E-2,-2.324349E-2,-6.892498E-2,1.12042375E-1,1.1823882E-2,-4.4678308E-2,9.406169E-3,-7.644149E-2,-8.917693E-3,1.7133424E-1,4.6853554E-2,2.4341661E-2,-2.586776E-2,8.052115E-2,-4.8856366E-2,-4.9231024E-3,8.866486E-2,-7.756981E-2,9.496894E-2,1.5826367E-1,-2.2956155E-2,1.8032491E-1,6.32756E-2,1.09350055E-1,-2.0328304E-2,-1.0629928E-1,2.7839009E-2,1.0760322E-2,-4.9029518E-2,-1.0203342E-2,1.0790005E-1,-5.519424E-2,1.2673906E-2,3.3337353E-3,-1.2085221E-1,-2.925448E-2,1.1679445E-1,-8.956734E-2,-6.063681E-2,-4.8461482E-2,6.492142E-2,3.237687E-2,1.377133E-1,2.6564026E-2,-5.6017194E-2,-3.285625E-2,-1.5727453E-1,6.8495765E-2,1.587731E-2,-8.055716E-3,7.903511E-2,2.3902424E-2,-6.291683E-2,-2.9955626E-2,1.4650613E-2,-1.3989441E-2,-6.332178E-2,9.832001E-2,-2.6095135E-2,1.1475832E-2,-6.0993634E-2,-2.264303E-2,-1.2924844E-1,8.689731E-3,-3.8581267E-2,1.7380163E-1,5.4805007E-2,-1.9541496E-2,-9.3075484E-2,5.1596712E-2,-6.4490676E-2,9.4194554E-2,-6.381921E-2,1.2533796E-1,1.24922525E-2,4.6462316E-2,-4.939735E-3,1.5388429E-3,3.243561E-2,-6.2386315E-2,-1.2085795E-2,-5.64567E-3,-5.1852763E-2,7.909937E-2,-3.0877411E-2,2.8846215E-2,-2.5491368E-2,2.9966754E-3,-9.881636E-2,-1.7836355E-2,1.0473934E-1,-4.8824567E-2,6.433463E-2,-7.590972E-2,7.974454E-3],"categories":[],"categories_nodes":[],"categories_segments":[],"categories_sizes":[],"default_left":[1,1,1,1,1,1,1,1,1,1,1,1,1,1,1,1,1,1,1,1,0,0,1,0,0,1,1,1,1,1,1,1,0,1,1,1,1,1,1,1,1,1,1,1,0,1,1,1,0,1,1,1,1,1,1,0,0,0,0,0,0,0,0,0,0,0,0,0,0,0,0,0,0,0,0,0,0,0,0,0,0,0,0,0,0,0,0,0,0,0,0,0,0,0,0,0,0],"id":5,"left_children":[1,3,5,7,9,11,13,15,17,19,21,23,25,27,29,31,33,35,37,39,-1,-1,41,-1,-1,43,45,47,49,51,53,55,-1,57,59,61,63,65,67,69,71,73,75,77,-1,79,81,83,-1,85,87,89,91,93,95,-1,-1,-1,-1,-1,-1,-1,-1,-1,-1,-1,-1,-1,-1,-1,-1,-1,-1,-1,-1,-1,-1,-1,-1,-1,-1,-1,-1,-1,-1,-1,-1,-1,-1,-1,-1,-1,-1,-1,-1,-1,-1],"loss_changes":[1.5905604E0,4.5749307E-1,3.527792E-1,3.0974934E-1,1.9732738E-1,1.3498354E-1,3.327879E-1,1.435991E-1,2.003231E-1,8.279538E-2,1.2098159E-1,7.048726E-3,8.199689E-2,2.446577E-1,1.4984083E-1,2.3456376E-2,1.01702034E-1,1.4398408E-1,9.297638E-2,7.339263E-2,0E0,0E0,1.0848945E-1,0E0,0E0,1.7373376E-2,1.8223396E-2,4.7245428E-2,2.4985564E-1,8.9278296E-2,1.10889375E-1,1.9116353E-3,0E0,7.781416E-2,8.557611E-2,7.455007E-2,5.3192824E-3,2.4586464E-3,6.821936E-2,5.3454757E-2,7.426286E-2,8.70737E-2,3.3277728E-2,2.3319954E-3,0E0,6.847745E-4,9.248387E-4,3.3255992E-3,0E0,1.2572694E-1,2.153379E-1,5.5467833E-2,3.9218254E-2,5.6070343E-2,8.442384E-2,0E0,0E0,0E0,0E0,0E0,0E0,0E0,0E0,0E0,0E0,0E0,0E0,0E0,0E0,0E0,0E0,0E0,0E0,0E0,0E0,0E0,0E0,0E0,0E0,0E0,0E0,0E0,0E0,0E0,0E0,0E0,0E0,0E0,0E0,0E0,0E0,0E0,0E0,0E0,0E0,0E0,0E0],"parents":[2147483647,0,0,1,1,2,2,3,3,4,4,5,5,6,6,7,7,8,8,9,9,10,10,11,11,12,12,13,13,14,14,15,15,16,16,17,17,18,18,19,19,22,22,25,25,26,26,27,27,28,28,29,29,30,30,31,31,33,33,34,34,35,35,36,36,37,37,38,38,39,39,40,40,41,41,42,42,43,43,45,45,46,46,47,47,49,49,50,50,51,51,52,52,53,53,54,54],"right_children":[2,4,6,8,10,12,14,16,18,20,22,24,26,28,30,32,34,36,38,40,-1,-1,42,-1,-1,44,46,48,50,52,54,56,-1,58,60,62,64,66,68,70,72,74,76,78,-1,80,82,84,-1,86,88,90,92,94,96,-1,-1,-1,-1,-1,-1,-1,-1,-1,-1,-1,-1,-1,-1,-1,-1,-1,-1,-1,-1,-1,-1,-1,-1,-1,-1,-1,-1,-1,-1,-1,-1,-1,-1,-1,-1,-1,-1,-1,-1,-1,-1],"split_conditions":[6.622178E-1,4.9618763E-1,1.8196988E-1,5.8042455E-1,6.125778E-1,5.8751094E-1,6.132194E-1,4.0966368E-1,6.514755E-1,8.519758E-1,3.1259716E-1,7.944131E-1,5.949892E-1,3.8629597E-1,5.901654E-1,6.211169E-1,5.6942487E-1,5.6872594E-1,5.9329355E-1,6.020162E-1,2.8490683E-2,4.7479104E-2,7.5407636E-1,5.4097477E-2,1.898268E-2,3.0445713E-1,4.2134932E-1,5.8105695E-1,5.274021E-1,7.1203065E-1,4.742727E-1,1.9699395E-1,3.2370016E-2,4.9875456E-1,4.1535038E-1,5.9419394E-1,3.778823E-1,4.5933753E-1,6.2469316E-1,2.5642598E-1,3.266834E-1,3.2502687E-1,5.7035875E-1,7.4039304E-1,4.131399E-2,3.0094287E-1,6.3665843E-1,4.637472E-1,-4.7182363E-2,5.7336295E-1,6.7762077E-1,7.413769E-1,5.1847196E-1,4.3150058E-1,5.910903E-1,-8.986688E-3,4.395184E-3,-4.1968324E-3,-1.8996533E-2,2.9496003E-2,-7.828541E-3,3.4427498E-3,-1.8298091E-2,-6.792909E-3,-3.8774535E-2,2.6069195E-3,-1.157438E-2,5.2140493E-2,1.6441504E-2,-5.8624493E-3,-2.7922647E-2,1.5479014E-2,-1.9347204E-2,2.8258367E-2,-1.9145763E-2,3.760139E-2,3.7476758E-3,1.3938695E-2,-1.4819206E-3,4.616529E-4,9.730684E-3,-1.8715896E-2,-3.6257387E-3,-1.693701E-3,-1.555583E-2,2.3729812E-2,-9.263224E-3,8.653865E-3,-7.6474105E-3,8.9900265E-4,-2.9644908E-2,-5.3509064E-3,3.1421803E-2,-1.4647371E-2,1.930039E-2,-2.2772916E-2,2.3923363E-3],"split_indices":[512,434,263,355,398,296,484,207,359,148,299,1,429,241,433,2,251,48,292,429,0,0,234,0,0,9,239,78,348,115,74,0,0,370,249,6,0,1,355,385,62,121,117,2,0,0,4,7,0,506,257,440,1,283,444,0,0,0,0,0,0,0,0,0,0,0,0,0,0,0,0,0,0,0,0,0,0,0,0,0,0,0,0,0,0,0,0,0,0,0,0,0,0,0,0,0,0],"split_type":[0,0,0,0,0,0,0,0,0,0,0,0,0,0,0,0,0,0,0,0,0,0,0,0,0,0,0,0,0,0,0,0,0,0,0,0,0,0,0,0,0,0,0,0,0,0,0,0,0,0,0,0,0,0,0,0,0,0,0,0,0,0,0,0,0,0,0,0,0,0,0,0,0,0,0,0,0,0,0,0,0,0,0,0,0,0,0,0,0,0,0,0,0,0,0,0,0],"sum_hessian":[1.618E3,8.79E2,7.39E2,4.41E2,4.38E2,3.6E1,7.03E2,2.66E2,1.75E2,3.89E2,4.9E1,1.8E1,1.8E1,5.28E2,1.75E2,8E0,2.58E2,1.49E2,2.6E1,3.87E2,2E0,3E0,4.6E1,1.6E1,2E0,9E0,9E0,1.3E1,5.15E2,6.8E1,1.07E2,2E0,6E0,2.34E2,2.4E1,1.4E2,9E0,5E0,2.1E1,2.24E2,1.63E2,3.6E1,1E1,3E0,6E0,4E0,5E0,6E0,7E0,1.16E2,3.99E2,5.4E1,1.4E1,1.7E1,9E1,1E0,1E0,3.9E1,1.95E2,7E0,1.7E1,1.25E2,1.5E1,1E0,8E0,1E0,4E0,1E1,1.1E1,1.1E1,2.13E2,5E0,1.58E2,3E0,3.3E1,4E0,6E0,2E0,1E0,1E0,3E0,4E0,1E0,3E0,3E0,1.05E2,1.1E1,3.04E2,9.5E1,4.9E1,5E0,3E0,1.1E1,6E0,1.1E1,7.6E1,1.4E1],"tree_param":{"num_deleted":"0","num_feature":"524","num_nodes":"97","size_leaf_vector":"0"}},{"base_weights":[-1.2033304E-2,-3.211132E-2,1.1859517E-2,-5.0514944E-2,-1.609608E-2,-7.9150265E-3,2.7708031E-2,-5.6929164E-2,-5.38406E-3,-2.2867119E-2,2.9900055E-2,9.735717E-3,-3.5846166E-2,-8.683818E-3,4.054557E-2,-6.010322E-2,1.027412E-2,-1.7423628E-2,1.4344667E-1,-3.31168E-2,1.8160133E-2,5.6032304E-2,-2.2543859E-2,1.7332584E-2,-8.663385E-2,-4.0796902E-2,9.410128E-2,9.316421E-3,-1.1276747E-1,5.2944303E-2,-1.654949E-2,-6.9051616E-2,-4.135778E-2,3.949134E-2,-3.7106384E-2,-5.5265557E-2,4.4069435E-3,-1.9175624E-2,-6.0824823E-2,-3.794722E-2,4.588952E-2,1.0015251E-1,1.3376105E-2,-8.8954434E-2,-1.6852267E-3,3.5239235E-3,6.275831E-2,-1.2015518E-1,-1.6326016E-2,-3.0674169E-2,-1.07208215E-1,1.07050285E-1,2.115263E-2,3.3613272E-2,-4.8287462E-2,-5.47686E-2,-1.6392027E-1,5.639048E-2,-7.4743085E-2,4.4570584E-3,-1.405201E-1,-9.483577E-2,-6.377808E-2,-5.0889898E-2,2.8252974E-3,6.1642703E-2,1.0758084E-2,7.274598E-4,-5.2385412E-2,-3.4453522E-3,-7.4931376E-2,-1.1991565E-2,4.7646638E-2,-3.47478E-2,1.8437651E-3,-7.102353E-2,8.501899E-3,-7.058396E-2,2.7857307E-2,1.2765174E-2,8.3618954E-2,1.5489161E-2,1.2035027E-1,7.676845E-2,-2.8331554E-2,-1.8926216E-2,3.3077624E-2,2.6419325E-2,-3.7149504E-2,1.267626E-1,3.479537E-2,-3.3150256E-2,-1.2613903E-1,3.2361925E-2,-3.253599E-2,-3.620611E-2,7.032521E-2,-2.1511875E-2,-1.4420547E-1,4.957626E-2,-6.073707E-2,-2.3849519E-2,-1.3391833E-1,-6.540765E-2,-2.5117872E-2,6.505416E-2,-9.759502E-4,-1.142935E-1,1.6088644E-2,4.9189612E-2,-3.8664475E-2,-5.8341365E-2,-2.0811348E-1],"categories":[],"categories_nodes":[],"categories_segments":[],"categories_sizes":[],"default_left":[1,1,1,1,1,1,1,1,1,1,1,1,1,1,1,1,1,1,0,1,1,1,1,1,1,1,1,1,1,1,1,1,1,1,1,1,1,1,1,1,1,1,1,0,1,1,1,1,1,1,1,0,0,1,1,1,0,1,1,1,1,0,0,0,0,0,0,0,0,0,0,0,0,0,0,0,0,0,0,0,0,0,0,0,0,0,0,0,0,0,0,0,0,0,0,0,0,0,0,0,0,0,0,0,0,0,0,0,0,0,0,0,0],"id":6,"left_children":[1,3,5,7,9,11,13,15,17,19,21,23,25,27,29,31,33,35,-1,37,39,41,43,45,47,49,51,53,55,57,59,61,63,65,67,69,71,73,75,77,79,81,83,-1,85,87,89,91,93,95,97,-1,-1,99,101,103,-1,105,107,109,111,-1,-1,-1,-1,-1,-1,-1,-1,-1,-1,-1,-1,-1,-1,-1,-1,-1,-1,-1,-1,-1,-1,-1,-1,-1,-1,-1,-1,-1,-1,-1,-1,-1,-1,-1,-1,-1,-1,-1,-1,-1,-1,-1,-1,-1,-1,-1,-1,-1,-1,-1,-1],"loss_changes":[7.7704823E-1,2.5855666E-1,2.321332E-1,1.1809063E-1,1.4768419E-1,1.6304077E-1,1.9236377E-1,7.6981425E-2,9.567597E-2,1.7385408E-1,8.486231E-2,1.5011927E-1,8.618598E-2,2.033919E-1,2.1607968E-1,5.4511786E-2,2.4998933E-2,4.072299E-2,0E0,1.2630683E-1,1.3087463E-1,7.582235E-2,2.8940003E-2,1.1833259E-1,3.3390522E-2,8.007221E-2,2.4586655E-3,1.3178526E-1,3.849119E-2,1.1422318E-1,1.43857E-1,2.522552E-2,4.7734663E-2,6.3381307E-3,4.084559E-3,1.8085394E-2,2.3261486E-2,7.240128E-2,7.837859E-2,6.2100347E-2,6.89193E-2,3.233607E-2,6.0341794E-2,0E0,1.08149145E-2,1.369417E-1,7.433815E-2,1.0247082E-3,5.788308E-3,6.3447E-2,4.762633E-2,0E0,0E0,1.0241457E-1,5.5400096E-2,1.1962E-3,0E0,1.21332645E-1,2.6985861E-2,9.449083E-2,3.2296285E-2,0E0,0E0,0E0,0E0,0E0,0E0,0E0,0E0,0E0,0E0,0E0,0E0,0E0,0E0,0E0,0E0,0E0,0E0,0E0,0E0,0E0,0E0,0E0,0E0,0E0,0E0,0E0,0E0,0E0,0E0,0E0,0E0,0E0,0E0,0E0,0E0,0E0,0E0,0E0,0E0,0E0,0E0,0E0,0E0,0E0,0E0,0E0,0E0,0E0,0E0,0E0,0E0],"parents":[2147483647,0,0,1,1,2,2,3,3,4,4,5,5,6,6,7,7,8,8,9,9,10,10,11,11,12,12,13,13,14,14,15,15,16,16,17,17,19,19,20,20,21,21,22,22,23,23,24,24,25,25,26,26,27,27,28,28,29,29,30,30,31,31,32,32,33,33,34,34,35,35,36,36,37,37,38,38,39,39,40,40,41,41,42,42,44,44,45,45,46,46,47,47,48,48,49,49,50,50,53,53,54,54,55,55,57,57,58,58,59,59,60,60],"right_children":[2,4,6,8,10,12,14,16,18,20,22,24,26,28,30,32,34,36,-1,38,40,42,44,46,48,50,52,54,56,58,60,62,64,66,68,70,72,74,76,78,80,82,84,-1,86,88,90,92,94,96,98,-1,-1,100,102,104,-1,106,108,110,112,-1,-1,-1,-1,-1,-1,-1,-1,-1,-1,-1,-1,-1,-1,-1,-1,-1,-1,-1,-1,-1,-1,-1,-1,-1,-1,-1,-1,-1,-1,-1,-1,-1,-1,-1,-1,-1,-1,-1,-1,-1,-1,-1,-1,-1,-1,-1,-1,-1,-1,-1,-1],"split_conditions":[6.622178E-1,6.711705E-1,5.2959865E-1,7.5215644E-1,7.237302E-1,3.371355E-1,6.521082E-1,6.02592E-1,7.341627E-1,6.686734E-1,7.0402503E-1,7.531086E-1,6.102377E-1,6.49965E-1,5.371696E-1,5.547335E-1,5.766526E-1,5.985639E-1,4.3034002E-2,6.565187E-1,4.4662938E-1,4.20816E-1,4.9752212E-1,4.3452322E-1,4.043234E-1,6.300405E-1,4.5615298E-1,3.923775E-1,5.0162375E-1,6.1455786E-1,6.570524E-1,3.9464614E-1,6.017653E-1,5.6796414E-1,3.417765E-1,4.9155158E-1,5.805141E-1,4.1884488E-1,7.3053E-1,4.1719484E-1,5.118215E-1,3.0940175E-1,6.173743E-1,-2.6686331E-2,6.565981E-1,5.1539946E-1,4.7245055E-1,5.2131534E-1,1.3551569E-1,8.211271E-1,6.554427E-1,3.2115087E-2,6.3457894E-3,6.3784957E-1,6.1788356E-1,4.8877352E-1,-4.9176082E-2,7.153236E-1,3.127534E-1,3.9646426E-1,3.398998E-1,-2.8450733E-2,-1.9133424E-2,-1.526697E-2,8.475893E-4,1.8492812E-2,3.2274255E-3,2.1823794E-4,-1.5715625E-2,-1.0336057E-3,-2.2479413E-2,-3.5974698E-3,1.4293992E-2,-1.0424341E-2,5.531296E-4,-2.130706E-2,2.5505698E-3,-2.1175189E-2,8.357192E-3,3.8295523E-3,2.5085688E-2,4.6467483E-3,3.610508E-2,2.3030536E-2,-8.499467E-3,-5.677865E-3,9.923288E-3,7.925798E-3,-1.1144851E-2,3.802878E-2,1.0438612E-2,-9.945077E-3,-3.784171E-2,9.708578E-3,-9.760797E-3,-1.0861834E-2,2.1097563E-2,-6.453563E-3,-4.326164E-2,1.4872879E-2,-1.8221121E-2,-7.154856E-3,-4.01755E-2,-1.9622296E-2,-7.535362E-3,1.951625E-2,-2.927851E-4,-3.4288052E-2,4.826593E-3,1.4756884E-2,-1.1599343E-2,-1.750241E-2,-6.2434044E-2],"split_indices":[512,431,165,353,18,40,504,185,238,410,222,187,389,184,11,219,333,440,0,321,195,381,372,121,289,406,0,227,477,67,95,313,457,13,11,261,363,422,135,21,91,230,238,0,292,340,43,5,0,153,200,0,0,136,19,72,0,252,9,498,22,0,0,0,0,0,0,0,0,0,0,0,0,0,0,0,0,0,0,0,0,0,0,0,0,0,0,0,0,0,0,0,0,0,0,0,0,0,0,0,0,0,0,0,0,0,0,0,0,0,0,0,0],"split_type":[0,0,0,0,0,0,0,0,0,0,0,0,0,0,0,0,0,0,0,0,0,0,0,0,0,0,0,0,0,0,0,0,0,0,0,0,0,0,0,0,0,0,0,0,0,0,0,0,0,0,0,0,0,0,0,0,0,0,0,0,0,0,0,0,0,0,0,0,0,0,0,0,0,0,0,0,0,0,0,0,0,0,0,0,0,0,0,0,0,0,0,0,0,0,0,0,0,0,0,0,0,0,0,0,0,0,0,0,0,0,0,0,0],"sum_hessian":[1.618E3,8.79E2,7.39E2,4.08E2,4.71E2,3.29E2,4.1E2,3.57E2,5.1E1,4.11E2,6E1,2.02E2,1.27E2,1.07E2,3.03E2,3.41E2,1.6E1,4.8E1,3E0,3.29E2,8.2E1,4E1,2E1,1.88E2,1.4E1,1.23E2,4E0,9.2E1,1.5E1,2.49E2,5.4E1,2.29E2,1.12E2,1E1,6E0,1.7E1,3.1E1,2.2E2,1.09E2,2.7E1,5.5E1,1.9E1,2.1E1,4E0,1.6E1,1.45E2,4.3E1,9E0,5E0,1.08E2,1.5E1,3E0,1E0,6.5E1,2.7E1,8E0,7E0,2.43E2,6E0,4.7E1,7E0,3.6E1,1.93E2,9.2E1,2E1,5E0,5E0,2E0,4E0,5E0,1.2E1,2.3E1,8E0,1.26E2,9.4E1,9.5E1,1.4E1,1.8E1,9E0,3E1,2.5E1,4E0,1.5E1,8E0,1.3E1,1.1E1,5E0,9.3E1,5.2E1,1.2E1,3.1E1,1E0,8E0,1E0,4E0,1.03E2,5E0,5E0,1E1,5.6E1,9E0,2.2E1,5E0,5E0,3E0,2.11E2,3.2E1,4E0,2E0,2.3E1,2.4E1,4E0,3E0],"tree_param":{"num_deleted":"0","num_feature":"524","num_nodes":"113","size_leaf_vector":"0"}},{"base_weights":[-8.5609825E-3,1.9179884E-3,-3.3953834E-2,-3.821609E-2,6.340974E-3,-4.0530685E-2,-1.02289375E-2,-4.513783E-2,9.38982E-2,-9.0644043E-4,3.5299998E-2,-4.9754802E-2,-1.8275913E-2,-1.827445E-2,7.6726414E-2,-5.320203E-2,1.8505627E-2,1.1589335E-2,-1.6634349E-2,4.5541227E-2,-2.9130347E-2,-3.9552614E-2,-7.115766E-2,-3.2519605E-2,1.7459324E-2,-3.8581163E-2,2.8360342E-3,9.322218E-2,3.2801166E-2,-3.433721E-2,-7.609419E-2,-4.67159E-2,8.108349E-2,5.840297E-3,6.894067E-2,5.2863766E-2,-2.208835E-2,7.429305E-2,1.35852685E-2,-5.910401E-2,1.23067815E-2,-1.2944093E-2,-4.4823162E-2,-7.609869E-2,-1.5323151E-2,2.9615743E-2,-3.8032316E-2,6.601842E-2,-7.6138303E-3,-4.9621593E-2,9.438681E-3,1.3838687E-2,-2.2292381E-2,4.4381306E-2,-4.309669E-2,-8.456765E-2,-9.746562E-3,-1.6989447E-2,-6.476338E-2,9.865274E-2,2.4773581E-2,-3.6177363E-2,1.3060449E-2,1.0182132E-1,-4.0935897E-3,7.458869E-2,-3.5604935E-2,-3.087185E-2,1.4293008E-2,1.1858083E-2,9.209135E-2,-1.4925777E-2,3.756094E-2,-1.0619439E-1,-3.6445864E-2,7.318839E-2,-5.4160897E-3,2.7465394E-2,-1.8254587E-2,-5.1924396E-2,-2.3462638E-2,-7.837892E-2,5.5134E-3,1.770647E-2,-3.868222E-2,8.071981E-3,4.375557E-2,-6.0549367E-2,-2.428779E-2,8.503986E-2,-1.3052046E-2,-6.549983E-2,8.888603E-3,-5.9652817E-2,6.190299E-3,-1.2864062E-2,3.4314238E-2,2.8238246E-2,-4.1257073E-3,-3.650003E-2,5.1024295E-3],"categories":[],"categories_nodes":[],"categories_segments":[],"categories_sizes":[],"default_left":[1,1,1,1,1,1,1,1,0,1,1,1,1,1,1,1,1,1,1,1,1,1,1,1,1,1,1,0,0,1,1,1,1,1,1,1,1,1,1,1,1,1,1,1,1,1,1,1,1,1,1,1,1,0,0,0,0,0,0,0,0,0,0,0,0,0,0,0,0,0,0,0,0,0,0,0,0,0,0,0,0,0,0,0,0,0,0,0,0,0,0,0,0,0,0,0,0,0,0,0,0],"id":7,"left_children":[1,3,5,7,9,11,13,15,-1,17,19,21,23,25,27,29,31,33,35,37,39,41,43,45,47,49,51,-1,-1,53,55,57,59,61,63,65,67,69,71,73,75,77,79,81,83,85,87,89,91,93,95,97,99,-1,-1,-1,-1,-1,-1,-1,-1,-1,-1,-1,-1,-1,-1,-1,-1,-1,-1,-1,-1,-1,-1,-1,-1,-1,-1,-1,-1,-1,-1,-1,-1,-1,-1,-1,-1,-1,-1,-1,-1,-1,-1,-1,-1,-1,-1,-1,-1],"loss_changes":[4.3086642E-1,2.038491E-1,7.339007E-2,1.0848689E-1,2.1704593E-1,7.504451E-2,7.416058E-2,5.6926966E-2,0E0,1.6292162E-1,1.3791472E-1,5.417645E-2,5.6557957E-2,4.126313E-2,3.4634322E-3,3.9277226E-2,5.6846406E-2,1.5192571E-1,1.402764E-1,1.634545E-1,3.6746036E-2,2.452302E-2,2.1731973E-2,2.8186552E-2,3.9463602E-2,2.6446193E-2,1.35795E-2,0E0,0E0,3.9837003E-2,2.335009E-2,2.6551196E-3,4.4812784E-3,1.281929E-1,1.0127622E-1,5.4549083E-2,1.0940972E-1,1.0336423E-1,5.934777E-2,1.42683275E-2,1.4423353E-2,7.153795E-3,2.1382958E-2,1.4575362E-2,6.857254E-3,1.779181E-3,2.1121882E-2,1.7654318E-2,2.1597916E-2,2.276373E-2,5.9893522E-3,8.9116E-3,6.024476E-3,0E0,0E0,0E0,0E0,0E0,0E0,0E0,0E0,0E0,0E0,0E0,0E0,0E0,0E0,0E0,0E0,0E0,0E0,0E0,0E0,0E0,0E0,0E0,0E0,0E0,0E0,0E0,0E0,0E0,0E0,0E0,0E0,0E0,0E0,0E0,0E0,0E0,0E0,0E0,0E0,0E0,0E0,0E0,0E0,0E0,0E0,0E0,0E0],"parents":[2147483647,0,0,1,1,2,2,3,3,4,4,5,5,6,6,7,7,9,9,10,10,11,11,12,12,13,13,14,14,15,15,16,16,17,17,18,18,19,19,20,20,21,21,22,22,23,23,24,24,25,25,26,26,29,29,30,30,31,31,32,32,33,33,34,34,35,35,36,36,37,37,38,38,39,39,40,40,41,41,42,42,43,43,44,44,45,45,46,46,47,47,48,48,49,49,50,50,51,51,52,52],"right_children":[2,4,6,8,10,12,14,16,-1,18,20,22,24,26,28,30,32,34,36,38,40,42,44,46,48,50,52,-1,-1,54,56,58,60,62,64,66,68,70,72,74,76,78,80,82,84,86,88,90,92,94,96,98,100,-1,-1,-1,-1,-1,-1,-1,-1,-1,-1,-1,-1,-1,-1,-1,-1,-1,-1,-1,-1,-1,-1,-1,-1,-1,-1,-1,-1,-1,-1,-1,-1,-1,-1,-1,-1,-1,-1,-1,-1,-1,-1,-1,-1,-1,-1,-1,-1],"split_conditions":[3.611629E-1,3.8979837E-1,6.8923724E-1,7.758504E-1,4.8778188E-1,5.703664E-1,7.062333E-1,7.1626556E-1,2.816946E-2,5.824169E-1,6.0627234E-1,4.347428E-1,7.115724E-1,5.5718607E-1,6.85948E-1,5.130178E-1,3.8273406E-1,7.7747196E-1,5.258386E-1,5.778673E-1,6.48389E-1,3.585697E-1,6.9062144E-1,2.624153E-1,5.206994E-1,4.767391E-1,4.8551118E-1,2.7966654E-2,9.840351E-3,3.0431694E-1,6.6373575E-1,3.746351E-1,3.9950743E-1,5.325242E-1,4.0166092E-1,6.3950175E-1,3.8940892E-1,5.7373965E-1,3.1859142E-1,5.0847244E-1,3.8404197E-1,3.4059623E-1,5.957579E-1,7.0396376E-1,5.5155706E-1,6.020736E-1,4.0831387E-1,6.698383E-1,3.721037E-1,5.4651475E-1,5.00806E-1,7.1809334E-1,7.1342397E-1,1.3314392E-2,-1.2929008E-2,-2.5370296E-2,-2.9239687E-3,-5.096834E-3,-1.9429015E-2,2.9595824E-2,7.4320748E-3,-1.08532095E-2,3.9181346E-3,3.0546397E-2,-1.228077E-3,2.2376608E-2,-1.0681481E-2,-9.261555E-3,4.2879023E-3,3.5574252E-3,2.7627407E-2,-4.4777333E-3,1.1268282E-2,-3.1858318E-2,-1.093376E-2,2.1956516E-2,-1.6248269E-3,8.2396185E-3,-5.4763765E-3,-1.5577319E-2,-7.0387917E-3,-2.3513678E-2,1.65402E-3,5.3119413E-3,-1.1604666E-2,2.4215945E-3,1.3126671E-2,-1.8164812E-2,-7.286337E-3,2.551196E-2,-3.915614E-3,-1.9649949E-2,2.666581E-3,-1.7895846E-2,1.8570898E-3,-3.8592187E-3,1.0294272E-2,8.471474E-3,-1.2377122E-3,-1.0950009E-2,1.5307289E-3],"split_indices":[138,24,53,180,167,127,356,499,0,484,164,11,2,377,60,458,412,429,460,277,308,170,70,173,415,93,295,0,0,48,63,3,0,133,366,513,268,410,30,297,85,27,263,398,13,2,125,1,465,7,73,311,226,0,0,0,0,0,0,0,0,0,0,0,0,0,0,0,0,0,0,0,0,0,0,0,0,0,0,0,0,0,0,0,0,0,0,0,0,0,0,0,0,0,0,0,0,0,0,0,0],"split_type":[0,0,0,0,0,0,0,0,0,0,0,0,0,0,0,0,0,0,0,0,0,0,0,0,0,0,0,0,0,0,0,0,0,0,0,0,0,0,0,0,0,0,0,0,0,0,0,0,0,0,0,0,0,0,0,0,0,0,0,0,0,0,0,0,0,0,0,0,0,0,0,0,0,0,0,0,0,0,0,0,0,0,0,0,0,0,0,0,0,0,0,0,0,0,0,0,0,0,0,0,0],"sum_hessian":[1.618E3,1.146E3,4.72E2,1.13E2,1.033E3,3.69E2,1.03E2,1.08E2,5E0,8.27E2,2.06E2,2.6E2,1.09E2,9.5E1,8E0,9.6E1,1.2E1,4.61E2,3.66E2,1.78E2,2.8E1,1.78E2,8.2E1,7.8E1,3.1E1,4.8E1,4.7E1,5E0,3E0,5.4E1,4.2E1,6E0,6E0,4.2E2,4.1E1,2.6E1,3.4E2,9.3E1,8.5E1,1.6E1,1.2E1,3E1,1.48E2,7.5E1,7E0,6E0,7.2E1,1E1,2.1E1,3.9E1,9E0,3.3E1,1.4E1,5E0,4.9E1,3.7E1,5E0,3E0,3E0,4E0,2E0,6.1E1,3.59E2,2.8E1,1.3E1,2.1E1,5E0,2.74E2,6.6E1,2.1E1,7.2E1,3.9E1,4.6E1,4E0,1.2E1,2E0,1E1,3E0,2.7E1,1.1E2,3.8E1,7.3E1,2E0,3E0,4E0,3E0,3E0,2.6E1,4.6E1,8E0,2E0,4E0,1.7E1,3.3E1,6E0,5E0,4E0,1.8E1,1.5E1,9E0,5E0],"tree_param":{"num_deleted":"0","num_feature":"524","num_nodes":"101","size_leaf_vector":"0"}},{"base_weights":[-5.97409E-3,-2.0739099E-2,4.105437E-3,-2.4708524E-2,1.4584325E-2,-7.864953E-3,1.5968416E-2,-1.7571568E-2,-3.8573414E-2,2.451878E-2,-9.050243E-2,1.4259961E-2,-1.8260585E-2,3.5111614E-2,-4.4646356E-3,3.976252E-2,-1.9486757E-2,2.053015E-2,-4.082344E-2,1.2200787E-2,9.570244E-2,9.219273E-3,1.1879738E-1,6.622697E-3,-3.0059539E-2,1.9335912E-3,4.9592048E-2,-4.298316E-2,4.8843995E-3,-1.3618564E-2,5.7138704E-2,-1.6408335E-2,-5.4854725E-2,5.1250804E-2,1.7481297E-3,-4.7744047E-2,-2.1139799E-2,-2.4991468E-2,3.310491E-2,4.518944E-2,1.1342736E-1,4.6429597E-2,-8.556121E-3,-1.39409965E-2,4.6994906E-2,-5.2206483E-2,-1.5125677E-2,6.502224E-2,-1.31182065E-2,6.867303E-2,2.094396E-2,6.3390443E-3,-6.9499634E-2,1.5295143E-2,-3.0007958E-2,-2.1057365E-2,4.348919E-3,6.763483E-2,2.4485804E-2,-2.2163292E-2,3.0484733E-3,1.6029158E-3,-6.903592E-2,9.168823E-3,-4.254423E-3,-5.0355677E-2,9.816757E-3,-4.234661E-2,-4.176581E-3,2.0708237E-2,-6.42647E-2,4.8913673E-2,-3.7117805E-2,6.5092266E-2,-2.226231E-2,-6.5465346E-2,3.7405726E-3,2.0791134E-2,-3.572642E-2,-6.523396E-2,6.306208E-2,-1.4572337E-1,-4.369052E-2,3.6231253E-2,-2.609361E-2,1.1382364E-2,1.10534325E-1,-6.8043455E-2,7.027482E-3,-5.138675E-2,7.654799E-2,3.4718752E-2,-2.8576806E-2,6.291498E-2,-1.5908549E-2,-1.1251682E-1,-3.867301E-2,-1.3174918E-2,3.6804534E-2,-5.776039E-2,2.2168826E-2],"categories":[],"categories_nodes":[],"categories_segments":[],"categories_sizes":[],"default_left":[1,1,1,1,1,1,1,1,1,1,0,1,1,1,1,1,1,1,1,1,1,1,0,1,1,1,1,1,1,1,1,1,1,0,1,1,1,1,1,0,0,1,1,1,1,1,1,1,1,1,1,1,1,1,1,0,0,0,0,0,0,0,0,0,0,0,0,0,0,0,0,0,0,0,0,0,0,0,0,0,0,0,0,0,0,0,0,0,0,0,0,0,0,0,0,0,0,0,0,0,0],"id":8,"left_children":[1,3,5,7,9,11,13,15,17,19,-1,21,23,25,27,29,31,33,35,37,39,41,-1,43,45,47,49,51,53,55,57,59,61,-1,63,65,67,69,71,-1,-1,73,75,77,79,81,83,85,87,89,91,93,95,97,99,-1,-1,-1,-1,-1,-1,-1,-1,-1,-1,-1,-1,-1,-1,-1,-1,-1,-1,-1,-1,-1,-1,-1,-1,-1,-1,-1,-1,-1,-1,-1,-1,-1,-1,-1,-1,-1,-1,-1,-1,-1,-1,-1,-1,-1,-1],"loss_changes":[2.4103169E-1,9.248078E-2,1.3687593E-1,5.780348E-2,7.216565E-2,1.10661596E-1,1.8947524E-1,4.3818623E-2,2.7435005E-2,5.3196423E-2,0E0,8.005363E-2,9.62052E-2,1.20012164E-1,8.4836036E-2,1.2836421E-2,4.047337E-2,4.526374E-3,2.5281698E-2,4.2810798E-2,2.932325E-3,9.828862E-2,0E0,8.865655E-2,7.26345E-2,7.397199E-2,9.367597E-2,6.0601696E-2,6.9477506E-2,6.262028E-4,1.7711967E-3,3.9370112E-2,2.412977E-2,0E0,3.062667E-4,2.184081E-2,1.8529398E-2,3.722631E-2,4.067026E-2,0E0,0E0,6.298386E-2,7.092421E-2,5.4465245E-2,6.902899E-2,6.451166E-2,7.642485E-2,3.5360806E-2,7.0188105E-2,1.022619E-1,4.9423963E-2,2.2398418E-2,3.5430893E-2,9.050383E-2,6.499393E-2,0E0,0E0,0E0,0E0,0E0,0E0,0E0,0E0,0E0,0E0,0E0,0E0,0E0,0E0,0E0,0E0,0E0,0E0,0E0,0E0,0E0,0E0,0E0,0E0,0E0,0E0,0E0,0E0,0E0,0E0,0E0,0E0,0E0,0E0,0E0,0E0,0E0,0E0,0E0,0E0,0E0,0E0,0E0,0E0,0E0,0E0],"parents":[2147483647,0,0,1,1,2,2,3,3,4,4,5,5,6,6,7,7,8,8,9,9,11,11,12,12,13,13,14,14,15,15,16,16,17,17,18,18,19,19,20,20,21,21,23,23,24,24,25,25,26,26,27,27,28,28,29,29,30,30,31,31,32,32,34,34,35,35,36,36,37,37,38,38,41,41,42,42,43,43,44,44,45,45,46,46,47,47,48,48,49,49,50,50,51,51,52,52,53,53,54,54],"right_children":[2,4,6,8,10,12,14,16,18,20,-1,22,24,26,28,30,32,34,36,38,40,42,-1,44,46,48,50,52,54,56,58,60,62,-1,64,66,68,70,72,-1,-1,74,76,78,80,82,84,86,88,90,92,94,96,98,100,-1,-1,-1,-1,-1,-1,-1,-1,-1,-1,-1,-1,-1,-1,-1,-1,-1,-1,-1,-1,-1,-1,-1,-1,-1,-1,-1,-1,-1,-1,-1,-1,-1,-1,-1,-1,-1,-1,-1,-1,-1,-1,-1,-1,-1,-1],"split_conditions":[6.0998785E-1,7.3736894E-1,5.0738287E-1,5.526376E-1,5.890306E-1,2.7352834E-1,4.4242984E-1,2.6691318E-1,3.326018E-1,3.4232736E-1,-2.7150732E-2,6.721162E-1,4.8312145E-1,5.8531785E-1,4.0467328E-1,4.5030606E-1,6.864067E-1,6.5228954E-2,6.03771E-1,3.1585523E-1,3.898841E-1,4.1087848E-1,3.5639215E-2,5.385124E-1,3.9749497E-1,5.2513856E-1,5.2660656E-1,3.5268253E-1,5.247489E-1,4.2970628E-1,6.486913E-1,6.1062706E-1,5.271256E-1,1.5375242E-2,3.263599E-1,5.990069E-1,5.4119176E-1,3.436777E-1,6.356484E-1,1.3556832E-2,3.402821E-2,4.4850084E-1,5.699885E-1,4.2488617E-1,3.2774442E-1,3.7598112E-1,3.5454655E-1,3.121721E-1,2.618943E-1,5.3092754E-1,7.3763895E-1,4.4263935E-1,2.7280772E-1,3.1236303E-1,4.948119E-1,-6.31721E-3,1.3046757E-3,2.029045E-2,7.3457416E-3,-6.648988E-3,9.14542E-4,4.8087476E-4,-2.0710776E-2,2.750647E-3,-1.276327E-3,-1.5106703E-2,2.9450273E-3,-1.2703984E-2,-1.2529743E-3,6.2124715E-3,-1.9279411E-2,1.4674102E-2,-1.1135342E-2,1.9527681E-2,-6.6786935E-3,-1.9639604E-2,1.1221719E-3,6.2373406E-3,-1.0717927E-2,-1.9570189E-2,1.8918624E-2,-4.371701E-2,-1.3107157E-2,1.0869376E-2,-7.828083E-3,3.4147094E-3,3.31603E-2,-2.0413037E-2,2.1082447E-3,-1.5416026E-2,2.2964397E-2,1.0415626E-2,-8.573042E-3,1.8874496E-2,-4.772565E-3,-3.375505E-2,-1.16019035E-2,-3.9524753E-3,1.1041361E-2,-1.7328119E-2,6.650648E-3],"split_indices":[407,510,455,201,255,226,124,400,346,368,0,397,225,414,405,335,10,33,290,227,20,360,0,154,110,292,111,49,159,1,41,266,403,0,1,394,317,505,197,0,0,334,296,15,282,418,221,211,408,457,347,237,268,382,80,0,0,0,0,0,0,0,0,0,0,0,0,0,0,0,0,0,0,0,0,0,0,0,0,0,0,0,0,0,0,0,0,0,0,0,0,0,0,0,0,0,0,0,0,0,0],"split_type":[0,0,0,0,0,0,0,0,0,0,0,0,0,0,0,0,0,0,0,0,0,0,0,0,0,0,0,0,0,0,0,0,0,0,0,0,0,0,0,0,0,0,0,0,0,0,0,0,0,0,0,0,0,0,0,0,0,0,0,0,0,0,0,0,0,0,0,0,0,0,0,0,0,0,0,0,0,0,0,0,0,0,0,0,0,0,0,0,0,0,0,0,0,0,0,0,0,0,0,0,0],"sum_hessian":[1.618E3,6.56E2,9.62E2,5.9E2,6.6E1,4.79E2,4.83E2,3.91E2,1.99E2,6.1E1,5E0,1.53E2,3.26E2,2.49E2,2.34E2,1.2E1,3.79E2,7E0,1.92E2,5.3E1,8E0,1.47E2,6E0,1.05E2,2.21E2,7.6E1,1.73E2,4.5E1,1.89E2,3E0,9E0,3.5E2,2.9E1,2E0,5E0,1.41E2,5.1E1,1.9E1,3.4E1,3E0,5E0,4.7E1,1E2,7E1,3.5E1,8.8E1,1.33E2,1.4E1,6.2E1,1.03E2,7E1,1.6E1,2.9E1,1.46E2,4.3E1,2E0,1E0,6E0,3E0,2.7E2,8E1,6E0,2.3E1,2E0,3E0,1.35E2,6E0,2.2E1,2.9E1,9E0,1E1,2.8E1,6E0,3.7E1,1E1,1.7E1,8.3E1,2.7E1,4.3E1,4E0,3.1E1,6E0,8.2E1,2.3E1,1.1E2,7E0,7E0,1.6E1,4.6E1,6E0,9.7E1,5.5E1,1.5E1,4E0,1.2E1,1.1E1,1.8E1,6.3E1,8.3E1,2.8E1,1.5E1],"tree_param":{"num_deleted":"0","num_feature":"524","num_nodes":"101","size_leaf_vector":"0"}},{"base_weights":[-4.2052283E-3,1.2094339E-3,-2.017483E-2,-4.741664E-3,1.8133162E-2,3.0746248E-2,-2.2455756E-2,-1.4129296E-4,-2.5902487E-2,4.8935607E-2,8.639301E-3,-5.7987192E-5,6.9258794E-2,3.4196258E-2,-2.4329824E-2,-1.1423838E-2,9.289245E-3,7.5439326E-3,-4.7139447E-2,3.0362045E-2,1.09425664E-1,-5.2291984E-3,3.0154023E-2,2.2351274E-2,-2.2457585E-2,6.1692875E-2,-8.165278E-3,-2.0438157E-2,-6.2217798E-2,-1.4469104E-2,3.4944158E-2,-7.4482807E-3,2.0735543E-2,4.323598E-2,-4.1646793E-2,-3.1900898E-2,-7.757205E-2,6.0387548E-2,7.391468E-3,1.2021234E-1,1.901708E-2,-3.3766918E-2,6.7792675E-3,7.0741706E-2,1.2998009E-2,-2.886653E-3,-2.579444E-2,6.6739075E-2,1.3184741E-2,-2.7202362E-2,8.153856E-3,2.1126416E-2,-2.3591952E-2,-4.0131547E-2,-9.248064E-2,-4.6123387E-3,-3.2135572E-2,-4.822413E-2,5.148466E-2,8.622079E-3,-3.2057323E-2,9.643062E-3,5.3667393E-2,-9.7025864E-2,6.317759E-2,-1.0241429E-1,-5.5733654E-3,-3.5905927E-2,6.5508425E-2,-6.3809087E-3,-1.0964162E-1,1.1519622E-2,7.8751765E-2,-1.49438055E-2,4.9584787E-2,1.3346978E-1,6.70035E-2,-1.5387408E-2,-8.75066E-2,1.48037495E-2,-6.313938E-2,2.9232286E-2,1.23651564E-1,-2.5820844E-2,3.764351E-2,3.7327656E-3,6.5319695E-2,-1.931779E-2,-4.6542525E-2,-4.3621957E-3,-5.3272415E-2,-9.704588E-2,-1.6566187E-2],"categories":[],"categories_nodes":[],"categories_segments":[],"categories_sizes":[],"default_left":[1,1,1,1,1,1,1,1,1,1,1,1,0,1,1,1,1,1,1,1,1,1,1,0,1,1,1,1,1,1,1,1,1,1,1,1,1,1,1,1,0,1,1,1,1,0,0,0,0,0,0,1,1,1,1,0,0,0,0,0,0,0,0,0,0,0,0,0,0,0,0,0,0,0,0,0,0,0,0,0,0,0,0,0,0,0,0,0,0,0,0,0,0],"id":9,"left_children":[1,3,5,7,9,11,13,15,17,19,21,23,-1,25,27,29,31,33,35,37,39,41,43,-1,45,47,49,51,53,55,57,59,61,63,65,67,69,71,73,75,-1,77,79,81,83,-1,-1,-1,-1,-1,-1,85,87,89,91,-1,-1,-1,-1,-1,-1,-1,-1,-1,-1,-1,-1,-1,-1,-1,-1,-1,-1,-1,-1,-1,-1,-1,-1,-1,-1,-1,-1,-1,-1,-1,-1,-1,-1,-1,-1,-1,-1],"loss_changes":[1.4001931E-1,1.21950835E-1,4.8310816E-2,8.721983E-2,9.169397E-2,2.1358307E-2,4.2556718E-2,7.852327E-2,1.1400364E-1,7.98178E-2,7.2364904E-2,6.0234987E-3,0E0,1.5646126E-2,5.4905847E-2,4.7949776E-2,7.717069E-2,1.1241085E-1,4.297276E-2,3.955643E-2,1.4292449E-2,5.0947662E-2,6.523117E-2,0E0,3.173726E-4,1.0783151E-3,2.0858166E-3,4.598531E-2,1.9682348E-2,5.4878205E-2,3.1371348E-2,6.513449E-2,8.67882E-2,1.096206E-1,5.8615685E-2,2.849067E-2,7.235861E-2,2.1528333E-2,3.2782562E-2,1.6382486E-3,0E0,4.21127E-2,5.9846103E-2,5.7880595E-2,6.602827E-2,0E0,0E0,0E0,0E0,0E0,0E0,1.8973235E-2,3.0785412E-2,1.0108501E-2,3.2442808E-3,0E0,0E0,0E0,0E0,0E0,0E0,0E0,0E0,0E0,0E0,0E0,0E0,0E0,0E0,0E0,0E0,0E0,0E0,0E0,0E0,0E0,0E0,0E0,0E0,0E0,0E0,0E0,0E0,0E0,0E0,0E0,0E0,0E0,0E0,0E0,0E0,0E0,0E0],"parents":[2147483647,0,0,1,1,2,2,3,3,4,4,5,5,6,6,7,7,8,8,9,9,10,10,11,11,13,13,14,14,15,15,16,16,17,17,18,18,19,19,20,20,21,21,22,22,24,24,25,25,26,26,27,27,28,28,29,29,30,30,31,31,32,32,33,33,34,34,35,35,36,36,37,37,38,38,39,39,41,41,42,42,43,43,44,44,51,51,52,52,53,53,54,54],"right_children":[2,4,6,8,10,12,14,16,18,20,22,24,-1,26,28,30,32,34,36,38,40,42,44,-1,46,48,50,52,54,56,58,60,62,64,66,68,70,72,74,76,-1,78,80,82,84,-1,-1,-1,-1,-1,-1,86,88,90,92,-1,-1,-1,-1,-1,-1,-1,-1,-1,-1,-1,-1,-1,-1,-1,-1,-1,-1,-1,-1,-1,-1,-1,-1,-1,-1,-1,-1,-1,-1,-1,-1,-1,-1,-1,-1,-1,-1],"split_conditions":[4.6345586E-1,7.189332E-1,2.3941398E-1,5E-1,5.204777E-1,4.6194E-1,2.149482E-1,5.8929116E-1,3.0948392E-1,7.3844945E-1,6.805732E-1,6.3521695E-1,2.0777639E-2,4.083268E-1,7.446463E-1,6.36634E-1,4.7085512E-1,5.236448E-1,5.4313874E-1,4.507659E-1,5.560171E-1,3.7803793E-1,6.2333035E-1,6.7053824E-3,4.1430664E-1,5.818957E-1,3.403169E-1,2.047246E-1,7.8812164E-1,4.9290758E-1,2.235842E-1,3.5361707E-1,6.46098E-1,2.7214757E-1,3.5957822E-1,7.3593974E-1,4.7804898E-1,5.4355556E-1,6.217965E-1,5.808003E-1,5.7051242E-3,5.420995E-1,7.626604E-1,5.483782E-1,6.5268564E-1,-8.6599594E-4,-7.7383327E-3,2.0021724E-2,3.9554224E-3,-8.160709E-3,2.446157E-3,8.148273E-1,5.6053716E-1,5.010761E-1,5.2996725E-1,-1.3837017E-3,-9.640672E-3,-1.4467239E-2,1.5445398E-2,2.586624E-3,-9.617197E-3,2.8929187E-3,1.6100219E-2,-2.910776E-2,1.8953279E-2,-3.0724287E-2,-1.6720097E-3,-1.0771778E-2,1.9652529E-2,-1.9142727E-3,-3.2892488E-2,3.4558869E-3,2.362553E-2,-4.483142E-3,1.4875437E-2,4.0040933E-2,2.0101052E-2,-4.616223E-3,-2.6251981E-2,4.441125E-3,-1.8941814E-2,8.769686E-3,3.7095472E-2,-7.7462536E-3,1.1293054E-2,1.1198297E-3,1.959591E-2,-5.7953373E-3,-1.3962758E-2,-1.3086587E-3,-1.5981724E-2,-2.9113766E-2,-4.9698562E-3],"split_indices":[116,2,258,523,252,183,491,477,97,478,361,46,0,176,504,335,96,72,421,33,194,350,241,0,0,4,0,368,45,106,87,227,18,141,387,192,252,478,317,37,0,451,435,392,126,0,0,0,0,0,0,439,427,264,12,0,0,0,0,0,0,0,0,0,0,0,0,0,0,0,0,0,0,0,0,0,0,0,0,0,0,0,0,0,0,0,0,0,0,0,0,0,0],"split_type":[0,0,0,0,0,0,0,0,0,0,0,0,0,0,0,0,0,0,0,0,0,0,0,0,0,0,0,0,0,0,0,0,0,0,0,0,0,0,0,0,0,0,0,0,0,0,0,0,0,0,0,0,0,0,0,0,0,0,0,0,0,0,0,0,0,0,0,0,0,0,0,0,0,0,0,0,0,0,0,0,0,0,0,0,0,0,0,0,0,0,0,0,0],"sum_hessian":[1.618E3,1.209E3,4.09E2,8.95E2,3.14E2,1.7E1,3.92E2,7.36E2,1.59E2,7.3E1,2.41E2,1E1,7E0,1.2E1,3.8E2,3.35E2,4.01E2,6.2E1,9.7E1,5.7E1,1.6E1,1.47E2,9.4E1,5E0,5E0,7E0,5E0,3.46E2,3.4E1,3.15E2,2E1,1.63E2,2.38E2,3.6E1,2.6E1,6.6E1,3.1E1,2.4E1,3.3E1,1.4E1,2E0,4.3E1,1.04E2,2.7E1,6.7E1,1E0,4E0,6E0,1E0,2E0,3E0,2.4E1,3.22E2,2.1E1,1.3E1,2.03E2,1.12E2,3E0,1.7E1,9.9E1,6.4E1,1.79E2,5.9E1,4E0,3.2E1,9E0,1.7E1,6.4E1,2E0,1E1,2.1E1,7E0,1.7E1,2.2E1,1.1E1,1E1,4E0,3.3E1,1E1,9.4E1,1E1,1.6E1,1.1E1,2.6E1,4.1E1,1.8E1,6E0,2.73E2,4.9E1,6E0,1.5E1,1.2E1,1E0],"tree_param":{"num_deleted":"0","num_feature":"524","num_nodes":"93","size_leaf_vector":"0"}},{"base_weights":[-2.9266553E-3,-1.0427924E-2,3.656644E-3,-1.2061802E-2,2.169244E-2,-2.1016018E-3,1.7394349E-2,-2.2999735E-3,-1.6150324E-2,4.7604516E-2,-8.303892E-3,-2.596973E-2,4.1786344E-3,4.3027382E-3,3.4612358E-2,-2.4485141E-2,5.5281357E-3,-1.9826854E-2,1.3810608E-3,5.928544E-2,-1.3940535E-2,-4.3327093E-2,1.2818299E-2,-3.6342982E-2,1.2005082E-2,6.930429E-2,2.0868147E-3,-6.9148643E-3,4.007613E-2,1.615926E-2,6.527344E-2,-4.044085E-2,2.0119026E-3,-8.729459E-3,2.121379E-2,-1.8009992E-2,-5.7224326E-2,1.1998252E-2,-2.2177758E-2,6.92322E-2,2.1566754E-2,-5.1593386E-2,-1.5107571E-2,-3.7464628E-3,3.0007472E-2,1.8472213E-3,-4.909768E-2,3.8689934E-2,-1.7443335E-2,-9.443969E-3,8.977835E-2,-3.4723906E-3,2.999863E-2,3.475932E-2,-2.189451E-2,1.9134049E-3,6.253986E-2,3.0533757E-2,-2.7063383E-2,8.935827E-2,3.5516456E-2,-1.7921131E-2,-6.606294E-2,-2.9358776E-2,3.605156E-2,-2.7135543E-3,-7.451676E-2,-2.442117E-3,4.8994772E-2,1.9540355E-2,-1.9515924E-2,-9.00176E-2,-1.870861E-2,1.8893437E-2,-1.2991914E-2,-3.4893308E-2,8.543217E-3,4.2480737E-2,8.0641784E-2,2.5950298E-2,2.016291E-3,-1.0223411E-2,3.6671013E-3,8.081555E-3,3.2776345E-2,-2.3810709E-2,3.37657E-2,7.476965E-3,-5.79165E-2,2.2596259E-2,6.635803E-2,1.0049251E-2,-2.9445294E-2,-3.127542E-2,8.258323E-3,3.5342555E-2,9.713125E-2,-1.898515E-2,6.8622525E-3,3.937937E-2,-1.993424E-2,-4.3283958E-2,5.2099336E-2,-5.0500464E-2,1.6090149E-5,2.7828608E-2,-3.72783E-2,2.3451319E-2,7.573235E-2,4.40415E-2,-1.928782E-2,-7.603769E-2,3.7602473E-3,9.408608E-3,1.0148671E-1,5.496424E-2,2.0816555E-2],"categories":[],"categories_nodes":[],"categories_segments":[],"categories_sizes":[],"default_left":[1,1,1,1,1,1,1,1,1,1,1,1,1,1,1,1,1,1,1,1,0,1,1,1,1,1,1,1,1,1,1,1,1,1,1,1,1,1,1,1,1,0,0,1,1,1,1,1,1,1,1,1,1,1,1,1,1,1,1,1,1,0,0,0,0,0,0,0,0,0,0,0,0,0,0,0,0,0,0,0,0,0,0,0,0,0,0,0,0,0,0,0,0,0,0,0,0,0,0,0,0,0,0,0,0,0,0,0,0,0,0,0,0,0,0,0,0],"id":10,"left_children":[1,3,5,7,9,11,13,15,17,19,21,23,25,27,29,31,33,35,37,39,-1,41,43,45,47,49,51,53,55,57,59,61,63,65,67,69,71,73,75,77,79,-1,-1,81,83,85,87,89,91,93,95,97,99,101,103,105,107,109,111,113,115,-1,-1,-1,-1,-1,-1,-1,-1,-1,-1,-1,-1,-1,-1,-1,-1,-1,-1,-1,-1,-1,-1,-1,-1,-1,-1,-1,-1,-1,-1,-1,-1,-1,-1,-1,-1,-1,-1,-1,-1,-1,-1,-1,-1,-1,-1,-1,-1,-1,-1,-1,-1,-1,-1,-1,-1],"loss_changes":[7.9989366E-2,3.998957E-2,6.830424E-2,2.8739013E-2,2.9154195E-2,9.139609E-2,5.7330996E-2,3.7300292E-2,3.2770365E-2,1.52045265E-2,1.3871182E-2,5.046443E-2,6.565501E-2,5.8865707E-2,6.118235E-2,2.3756992E-2,3.5743896E-2,2.7506739E-2,2.2527529E-2,4.8849285E-3,0E0,8.534454E-4,3.5292364E-3,4.880114E-2,2.2678025E-2,2.5032312E-2,7.2877735E-2,7.0678666E-2,2.9885035E-2,4.431761E-2,2.621068E-2,1.9011158E-2,2.4551066E-2,3.3042483E-2,5.0065663E-2,2.3113742E-2,2.2313971E-2,1.0928795E-2,1.12358555E-2,5.421713E-4,3.7617818E-4,0E0,0E0,3.7361117E-4,9.937631E-5,2.2096999E-2,3.7852168E-2,5.179776E-3,4.9154116E-3,1.8041496E-3,1.3702735E-3,6.2975265E-2,3.7320755E-2,4.285321E-2,5.2023027E-2,1.5256657E-2,9.568833E-3,3.6517248E-2,2.7458105E-2,2.037777E-2,4.573444E-3,0E0,0E0,0E0,0E0,0E0,0E0,0E0,0E0,0E0,0E0,0E0,0E0,0E0,0E0,0E0,0E0,0E0,0E0,0E0,0E0,0E0,0E0,0E0,0E0,0E0,0E0,0E0,0E0,0E0,0E0,0E0,0E0,0E0,0E0,0E0,0E0,0E0,0E0,0E0,0E0,0E0,0E0,0E0,0E0,0E0,0E0,0E0,0E0,0E0,0E0,0E0,0E0,0E0,0E0,0E0,0E0],"parents":[2147483647,0,0,1,1,2,2,3,3,4,4,5,5,6,6,7,7,8,8,9,9,10,10,11,11,12,12,13,13,14,14,15,15,16,16,17,17,18,18,19,19,21,21,22,22,23,23,24,24,25,25,26,26,27,27,28,28,29,29,30,30,31,31,32,32,33,33,34,34,35,35,36,36,37,37,38,38,39,39,40,40,43,43,44,44,45,45,46,46,47,47,48,48,49,49,50,50,51,51,52,52,53,53,54,54,55,55,56,56,57,57,58,58,59,59,60,60],"right_children":[2,4,6,8,10,12,14,16,18,20,22,24,26,28,30,32,34,36,38,40,-1,42,44,46,48,50,52,54,56,58,60,62,64,66,68,70,72,74,76,78,80,-1,-1,82,84,86,88,90,92,94,96,98,100,102,104,106,108,110,112,114,116,-1,-1,-1,-1,-1,-1,-1,-1,-1,-1,-1,-1,-1,-1,-1,-1,-1,-1,-1,-1,-1,-1,-1,-1,-1,-1,-1,-1,-1,-1,-1,-1,-1,-1,-1,-1,-1,-1,-1,-1,-1,-1,-1,-1,-1,-1,-1,-1,-1,-1,-1,-1,-1,-1,-1,-1],"split_conditions":[6.3467425E-1,8.132193E-1,6.715749E-1,3.1010124E-1,4.2740297E-1,5.142698E-1,6.8386483E-1,4.9076203E-1,6.931329E-1,5.7258224E-1,6.7417777E-1,6.300292E-1,3.1605345E-1,6.0894614E-1,5.0325495E-1,5.0138474E-1,5.580716E-1,7.627102E-1,7.323433E-1,7.53272E-1,-4.1821604E-3,5.66062E-1,5.2715313E-1,3.7723726E-1,5.5189943E-1,5.3892314E-1,5.39881E-1,4.450857E-1,4.3231708E-1,5.65431E-1,5.172616E-1,5.349387E-1,5.1376885E-1,7.560687E-1,4.0769517E-1,3.1588715E-1,4.814319E-1,6.323613E-1,6.034113E-1,3.5607913E-1,4.2986578E-1,-1.5478016E-2,-4.5322715E-3,2.704412E-1,3.2100523E-1,3.829469E-1,3.9705622E-1,8.112415E-1,2.7411485E-1,2.978502E-1,2.9228646E-1,5.8947E-1,6.0513043E-1,2.8136078E-1,6.175703E-1,3.7391275E-1,3.1547982E-1,4.4690436E-1,2.834216E-1,2.8964126E-1,3.7823457E-1,-5.3763394E-3,-1.9818883E-2,-8.807633E-3,1.0815469E-2,-8.140663E-4,-2.2355027E-2,-7.3263515E-4,1.4698432E-2,5.8621066E-3,-5.8547775E-3,-2.7005281E-2,-5.6125834E-3,5.6680315E-3,-3.8975743E-3,-1.0467993E-2,2.562965E-3,1.2744222E-2,2.4192536E-2,7.78509E-3,6.048873E-4,-3.0670234E-3,1.1001304E-3,2.4244667E-3,9.832904E-3,-7.143213E-3,1.0129711E-2,2.2430895E-3,-1.7374951E-2,6.7788777E-3,1.990741E-2,3.0147755E-3,-8.833589E-3,-9.382627E-3,2.477497E-3,1.0602767E-2,2.9139377E-2,-5.695545E-3,2.0586757E-3,1.1813811E-2,-5.9802723E-3,-1.2985188E-2,1.5629802E-2,-1.515014E-2,4.827045E-6,8.348582E-3,-1.118349E-2,7.035396E-3,2.2719705E-2,1.3212451E-2,-5.7863463E-3,-2.2811309E-2,1.1280742E-3,2.8225826E-3,3.0446015E-2,1.6489273E-2,6.2449668E-3],"split_indices":[512,508,477,268,489,177,133,501,53,160,5,145,72,466,81,375,105,117,226,433,0,4,255,330,514,397,391,204,381,194,279,254,517,507,211,151,436,313,246,274,3,0,0,12,0,485,273,45,190,0,22,266,248,334,304,230,191,302,505,99,401,0,0,0,0,0,0,0,0,0,0,0,0,0,0,0,0,0,0,0,0,0,0,0,0,0,0,0,0,0,0,0,0,0,0,0,0,0,0,0,0,0,0,0,0,0,0,0,0,0,0,0,0,0,0,0,0],"split_type":[0,0,0,0,0,0,0,0,0,0,0,0,0,0,0,0,0,0,0,0,0,0,0,0,0,0,0,0,0,0,0,0,0,0,0,0,0,0,0,0,0,0,0,0,0,0,0,0,0,0,0,0,0,0,0,0,0,0,0,0,0,0,0,0,0,0,0,0,0,0,0,0,0,0,0,0,0,0,0,0,0,0,0,0,0,0,0,0,0,0,0,0,0,0,0,0,0,0,0,0,0,0,0,0,0,0,0,0,0,0,0,0,0,0,0,0,0],"sum_hessian":[1.618E3,7.56E2,8.62E2,7.2E2,3.6E1,6.08E2,2.54E2,2.13E2,5.07E2,1.9E1,1.7E1,1.26E2,4.82E2,1.45E2,1.09E2,5.5E1,1.58E2,4.19E2,8.8E1,1.6E1,3E0,6E0,1.1E1,9.9E1,2.7E1,1.4E1,4.68E2,1.11E2,3.4E1,6.9E1,4E1,3.4E1,2.1E1,8.3E1,7.5E1,4.01E2,1.8E1,6.1E1,2.7E1,1.2E1,4E0,4E0,2E0,6E0,5E0,2.5E1,7.4E1,1.4E1,1.3E1,3E0,1.1E1,3.91E2,7.7E1,2.9E1,8.2E1,1.3E1,2.1E1,5.2E1,1.7E1,2.1E1,1.9E1,1.9E1,1.5E1,1.1E1,1E1,7.7E1,6E0,4.1E1,3.4E1,1.5E1,3.86E2,9E0,9E0,4.8E1,1.3E1,1.9E1,8E0,5E0,7E0,3E0,1E0,3E0,3E0,1E0,4E0,1.4E1,1.1E1,1E1,6.4E1,1E1,4E0,4E0,9E0,1E0,2E0,2E0,9E0,1.56E2,2.35E2,6.5E1,1.2E1,5E0,2.4E1,3.5E1,4.7E1,8E0,5E0,6E0,1.5E1,4.1E1,1.1E1,6E0,1.1E1,3E0,1.8E1,7E0,1.2E1],"tree_param":{"num_deleted":"0","num_feature":"524","num_nodes":"117","size_leaf_vector":"0"}},{"base_weights":[-2.0114707E-3,4.0838055E-2,-2.8186871E-3,5.619358E-2,-4.7178283E-2,-4.6396838E-3,1.46938125E-2,2.8075809E-2,6.942794E-2,-5.784502E-2,-2.2556782E-3,-7.2979676E-3,6.708911E-3,5.378308E-2,6.445694E-3,7.127449E-3,3.603547E-2,8.333501E-2,4.3365605E-2,-4.00484E-3,-2.0355344E-2,-1.0037238E-2,1.7498583E-2,2.8784562E-2,9.7804226E-2,-1.5765923E-3,3.85979E-2,-5.519092E-4,9.871204E-3,-3.0490794E-4,-1.811641E-2,-8.13535E-3,-3.796413E-2,4.9832467E-2,-1.5983297E-2,3.40051E-2,2.2938086E-3,-1.1126523E-2,4.4990864E-2,2.8315455E-2,1.02950886E-1,-1.1731609E-2,2.531797E-2,5.9779014E-2,-5.6995186E-3,1.2817002E-2,-6.088148E-3,4.5499634E-2,-2.038873E-2,-2.079694E-2,1.3041162E-2,-2.1402088E-3,-5.0548047E-2,1.7957404E-2,7.8116044E-2,7.184448E-3,-2.6650716E-2,4.6864793E-2,-9.747837E-3,3.1400595E-2,-8.488602E-3,-3.9491057E-4,-3.2392293E-2,5.5503584E-2,1.7069798E-2,-2.4625253E-2,1.6156202E-2,-4.134444E-3,4.1910116E-2,1.6648054E-2,8.179153E-2,4.112804E-3,-1.4371937E-2],"categories":[],"categories_nodes":[],"categories_segments":[],"categories_sizes":[],"default_left":[1,1,1,1,1,1,1,1,1,0,0,1,1,1,1,1,0,0,0,1,1,1,1,1,1,1,1,0,0,1,1,1,1,1,1,1,1,1,1,0,0,1,1,1,1,0,0,0,0,0,0,0,0,0,0,0,0,0,0,0,0,0,0,0,0,0,0,0,0,0,0,0,0],"id":11,"left_children":[1,3,5,7,9,11,13,15,17,-1,-1,19,21,23,25,27,-1,-1,-1,29,31,33,35,37,39,41,43,-1,-1,45,47,49,51,53,55,57,59,61,63,-1,-1,65,67,69,71,-1,-1,-1,-1,-1,-1,-1,-1,-1,-1,-1,-1,-1,-1,-1,-1,-1,-1,-1,-1,-1,-1,-1,-1,-1,-1,-1,-1],"loss_changes":[5.611445E-2,4.319723E-2,5.0773602E-2,7.7258945E-3,2.2654077E-3,4.352074E-2,4.8015278E-2,1.4105774E-3,2.547793E-3,0E0,0E0,5.0142024E-2,4.9683455E-2,2.5796793E-2,3.230263E-2,8.972913E-5,0E0,0E0,0E0,4.8760343E-2,5.0258286E-2,3.9243273E-2,4.183531E-2,1.2143192E-2,3.036186E-4,2.788161E-2,2.3797426E-2,0E0,0E0,5.6310415E-2,2.8971523E-2,3.780918E-2,4.316911E-2,7.6126475E-3,2.4658337E-2,4.5468763E-2,2.7884586E-2,1.3565039E-3,2.8684083E-3,0E0,0E0,2.7006436E-2,1.3856281E-2,1.4778487E-2,8.2497805E-4,0E0,0E0,0E0,0E0,0E0,0E0,0E0,0E0,0E0,0E0,0E0,0E0,0E0,0E0,0E0,0E0,0E0,0E0,0E0,0E0,0E0,0E0,0E0,0E0,0E0,0E0,0E0,0E0],"parents":[2147483647,0,0,1,1,2,2,3,3,4,4,5,5,6,6,7,7,8,8,11,11,12,12,13,13,14,14,15,15,19,19,20,20,21,21,22,22,23,23,24,24,25,25,26,26,29,29,30,30,31,31,32,32,33,33,34,34,35,35,36,36,37,37,38,38,41,41,42,42,43,43,44,44],"right_children":[2,4,6,8,10,12,14,16,18,-1,-1,20,22,24,26,28,-1,-1,-1,30,32,34,36,38,40,42,44,-1,-1,46,48,50,52,54,56,58,60,62,64,-1,-1,66,68,70,72,-1,-1,-1,-1,-1,-1,-1,-1,-1,-1,-1,-1,-1,-1,-1,-1,-1,-1,-1,-1,-1,-1,-1,-1,-1,-1,-1,-1],"split_conditions":[1.5218896E-1,7.135461E-1,7.7722824E-1,4.2853743E-1,3.5092556E-1,7.3710096E-1,3.1473744E-1,5.075009E-1,4.5009285E-1,-1.7353507E-2,-6.7670346E-4,5E-1,2.728643E-1,5.713798E-1,8.862541E-1,3.3010602E-1,1.0810642E-2,2.5000505E-2,1.3009682E-2,5E-1,6.387764E-1,4.5782644E-1,5.3193486E-1,3.1441313E-1,2.6366973E-1,7.381519E-1,5.294904E-1,-1.6557277E-4,2.9613615E-3,3.7453032E-1,2.596906E-1,5.295827E-1,4.8824263E-1,4.3705398E-1,5.056826E-1,6.1590374E-1,2.7366325E-1,3.5564804E-1,6.7674303E-1,8.494637E-3,3.0885266E-2,5.264182E-1,5.727298E-1,4.826917E-1,3.0215776E-1,3.8451008E-3,-1.8264444E-3,1.3649891E-2,-6.1166193E-3,-6.239082E-3,3.9123488E-3,-6.420627E-4,-1.5164414E-2,5.3872215E-3,2.3434814E-2,2.1553345E-3,-7.995215E-3,1.4059438E-2,-2.924351E-3,9.420179E-3,-2.5465807E-3,-1.18473174E-4,-9.717688E-3,1.6651075E-2,5.1209396E-3,-7.387576E-3,4.8468607E-3,-1.2403333E-3,1.2573035E-2,4.9944166E-3,2.4537459E-2,1.2338412E-3,-4.311581E-3],"split_indices":[263,71,508,196,3,510,401,18,130,0,0,523,382,24,181,0,0,0,0,519,23,86,43,101,0,361,196,0,0,330,170,241,265,91,71,242,94,0,5,0,0,479,296,378,41,0,0,0,0,0,0,0,0,0,0,0,0,0,0,0,0,0,0,0,0,0,0,0,0,0,0,0,0],"split_type":[0,0,0,0,0,0,0,0,0,0,0,0,0,0,0,0,0,0,0,0,0,0,0,0,0,0,0,0,0,0,0,0,0,0,0,0,0,0,0,0,0,0,0,0,0,0,0,0,0,0,0,0,0,0,0,0,0,0,0,0,0,0,0,0,0,0,0,0,0,0,0,0,0],"sum_hessian":[1.618E3,2.9E1,1.589E3,2.5E1,4E0,1.44E3,1.49E2,9E0,1.6E1,3E0,1E0,1.167E3,2.73E2,2.5E1,1.24E2,3E0,6E0,9E0,7E0,9.33E2,2.34E2,1.07E2,1.66E2,1.7E1,8E0,1E2,2.4E1,1E0,2E0,7.4E2,1.93E2,1.39E2,9.5E1,9E0,9.8E1,7.9E1,8.7E1,5E0,1.2E1,1E0,7E0,7.3E1,2.7E1,1.6E1,8E0,2.26E2,5.14E2,6E0,1.87E2,8.7E1,5.2E1,2.5E1,7E1,5E0,4E0,3.1E1,6.7E1,6.1E1,1.8E1,2.3E1,6.4E1,4E0,1E0,8E0,4E0,5E1,2.3E1,1E1,1.7E1,6E0,1E1,4E0,4E0],"tree_param":{"num_deleted":"0","num_feature":"524","num_nodes":"73","size_leaf_vector":"0"}},{"base_weights":[-1.3137966E-3,-1.9917766E-2,1.6201028E-4,-5.2623253E-2,-1.2779049E-2,-7.909569E-4,3.6872063E-2,-6.918202E-2,1.4201206E-2,1.0244981E-2,-2.4980003E-2,9.474453E-3,-3.7399884E-3,5.8326434E-2,1.2347877E-2,-8.156429E-2,-2.3151726E-2,1.230225E-3,1.7136395E-2,7.134351E-2,2.2875099E-3,-1.0318522E-2,-5.5207938E-2,1.7413704E-2,-7.4772374E-3,1.2212021E-2,-5.6323786E-3,8.0977745E-2,2.757735E-2,4.225874E-2,-1.3247181E-2,-2.6444457E-2,-4.990399E-3,-1.5943496E-2,1.7352931E-2,-1.8962206E-2,8.232992E-3,-1.51122315E-2,-7.023874E-2,3.4441408E-2,3.0346918E-3,2.29409E-2,-2.1125475E-2,4.4923954E-4,3.6020424E-2,-9.099049E-3,3.1437506E-3,-7.3649287E-3,3.227815E-2,2.2399923E-2,6.148228E-2,-2.697489E-2,8.621049E-3,-2.9358037E-2,-6.3004214E-3,-2.9675178E-3,3.05539E-2,-2.2014959E-2,1.6868472E-2,1.487977E-2,-2.3314044E-2,-7.568367E-3,-1.8878039E-2,-8.081676E-2,-3.291933E-2,-3.3987932E-2,3.907228E-2,2.5058566E-2,-8.42256E-3,3.504234E-2,-1.9256402E-2,-4.8525702E-2,-6.7146346E-3,4.853848E-3,-5.615144E-2,4.8220478E-2,-5.270351E-4,-3.0849108E-2,-7.2811185E-3,-8.536018E-3,1.4328774E-2,5.3804517E-3,2.4727726E-2,1.04469955E-2,6.586313E-4],"categories":[],"categories_nodes":[],"categories_segments":[],"categories_sizes":[],"default_left":[1,1,1,1,1,1,1,1,1,1,1,1,1,1,1,0,1,0,0,0,1,1,1,1,1,1,1,0,1,1,1,0,0,1,1,1,1,1,1,1,1,1,1,1,1,1,1,0,0,1,0,0,1,0,0,0,0,0,0,0,0,0,0,0,0,0,0,0,0,0,0,0,0,0,0,0,0,0,0,0,0,0,0,0,0],"id":12,"left_children":[1,3,5,7,9,11,13,15,17,19,21,23,25,27,29,-1,31,-1,-1,-1,33,35,37,39,41,43,45,-1,47,49,51,-1,-1,53,55,57,59,61,63,65,67,69,71,73,75,77,79,-1,-1,81,-1,-1,83,-1,-1,-1,-1,-1,-1,-1,-1,-1,-1,-1,-1,-1,-1,-1,-1,-1,-1,-1,-1,-1,-1,-1,-1,-1,-1,-1,-1,-1,-1,-1,-1],"loss_changes":[4.4454277E-2,2.711108E-2,5.2539356E-2,2.421961E-2,2.8066516E-2,4.4355128E-2,1.927353E-2,7.800959E-3,1.6927975E-4,1.6853446E-2,2.8237443E-2,4.4139083E-2,3.4422074E-2,1.1696987E-2,1.5105644E-2,0E0,1.670334E-4,0E0,0E0,0E0,9.065715E-3,7.372019E-3,1.1594616E-2,5.449514E-2,4.4075802E-2,3.3870235E-2,3.1000175E-2,0E0,1.8802928E-3,2.0586122E-3,3.5347599E-3,0E0,0E0,1.7553933E-3,4.9191616E-3,3.762208E-3,3.4921998E-3,5.5985292E-5,3.261052E-3,3.3650517E-2,3.0995691E-2,1.7526181E-2,2.849897E-2,2.0715464E-2,1.7860655E-2,2.8639637E-2,3.7876833E-2,0E0,0E0,1.04661565E-4,0E0,0E0,6.5814005E-5,0E0,0E0,0E0,0E0,0E0,0E0,0E0,0E0,0E0,0E0,0E0,0E0,0E0,0E0,0E0,0E0,0E0,0E0,0E0,0E0,0E0,0E0,0E0,0E0,0E0,0E0,0E0,0E0,0E0,0E0,0E0,0E0],"parents":[2147483647,0,0,1,1,2,2,3,3,4,4,5,5,6,6,7,7,8,8,9,9,10,10,11,11,12,12,13,13,14,14,16,16,20,20,21,21,22,22,23,23,24,24,25,25,26,26,28,28,29,29,30,30,33,33,34,34,35,35,36,36,37,37,38,38,39,39,40,40,41,41,42,42,43,43,44,44,45,45,46,46,49,49,52,52],"right_children":[2,4,6,8,10,12,14,16,18,20,22,24,26,28,30,-1,32,-1,-1,-1,34,36,38,40,42,44,46,-1,48,50,52,-1,-1,54,56,58,60,62,64,66,68,70,72,74,76,78,80,-1,-1,82,-1,-1,84,-1,-1,-1,-1,-1,-1,-1,-1,-1,-1,-1,-1,-1,-1,-1,-1,-1,-1,-1,-1,-1,-1,-1,-1,-1,-1,-1,-1,-1,-1,-1,-1],"split_conditions":[2.1278319E-1,2.8975964E-1,8.22864E-1,5.207196E-1,3.3888486E-1,2.5127614E-1,6.0215294E-1,4.682439E-1,6.720753E-1,3.4983408E-1,5.9077114E-1,6.6454923E-1,3.038723E-1,5.685238E-1,4.7740442E-1,-2.4469288E-2,3.175992E-1,3.690675E-4,5.140919E-3,2.1403054E-2,7.0962906E-1,6.027335E-1,3.0578822E-1,3.7688038E-1,6.272508E-1,5.684223E-1,7.0699453E-1,2.4293324E-2,1.18548706E-1,7.2116184E-1,5.905936E-1,-7.933337E-3,-1.4971198E-3,5.5172944E-1,1.913485E-1,7.0821977E-1,5.8972067E-1,2.4038282E-1,7.47308E-1,4.5814517E-1,4.4584945E-1,5.6368154E-1,6.7011416E-1,7.873584E-1,6.077549E-1,2.3160574E-1,4.8549786E-1,-2.2094788E-3,9.683445E-3,2.5410402E-1,1.8444685E-2,-8.092468E-3,4.671874E-1,-8.807411E-3,-1.8901265E-3,-8.902554E-4,9.16617E-3,-6.604488E-3,5.060542E-3,4.463931E-3,-6.9942134E-3,-2.2705102E-3,-5.6634117E-3,-2.424503E-2,-9.875799E-3,-1.019638E-2,1.1721685E-2,7.51757E-3,-2.526768E-3,1.0512703E-2,-5.776921E-3,-1.4557711E-2,-2.0143904E-3,1.4561544E-3,-1.6845433E-2,1.4466144E-2,-1.5811053E-4,-9.254733E-3,-2.1843356E-3,-2.5608055E-3,4.2986325E-3,1.6141356E-3,7.418318E-3,3.1340988E-3,1.9758941E-4],"split_indices":[22,223,351,55,491,12,362,416,2,82,468,187,49,397,7,0,0,0,0,0,462,214,17,13,305,122,2,0,0,73,82,0,0,443,236,325,29,0,197,285,251,463,407,36,336,140,444,0,0,0,0,0,0,0,0,0,0,0,0,0,0,0,0,0,0,0,0,0,0,0,0,0,0,0,0,0,0,0,0,0,0,0,0,0,0],"split_type":[0,0,0,0,0,0,0,0,0,0,0,0,0,0,0,0,0,0,0,0,0,0,0,0,0,0,0,0,0,0,0,0,0,0,0,0,0,0,0,0,0,0,0,0,0,0,0,0,0,0,0,0,0,0,0,0,0,0,0,0,0,0,0,0,0,0,0,0,0,0,0,0,0,0,0,0,0,0,0,0,0,0,0,0,0],"sum_hessian":[1.618E3,1.18E2,1.5E3,2E1,9.8E1,1.463E3,3.7E1,1.6E1,4E0,3.4E1,6.4E1,3.26E2,1.137E3,1.9E1,1.8E1,1.2E1,4E0,1E0,3E0,3E0,3.1E1,4.4E1,2E1,2.22E2,1.04E2,1.2E2,1.017E3,1E1,9E0,8E0,1E1,3E0,1E0,1.4E1,1.7E1,3E1,1.4E1,6E0,1.4E1,1.01E2,1.21E2,3.2E1,7.2E1,8.1E1,3.9E1,7.29E2,2.88E2,1E0,8E0,5E0,3E0,6E0,4E0,5E0,9E0,7E0,1E1,2.8E1,2E0,1.2E1,2E0,3E0,3E0,1E1,4E0,6E0,9.5E1,4.1E1,8E1,2.5E1,7E0,2.4E1,4.8E1,7.6E1,5E0,2.9E1,1E1,5.5E1,6.74E2,1.41E2,1.47E2,1E0,4E0,3E0,1E0],"tree_param":{"num_deleted":"0","num_feature":"524","num_nodes":"85","size_leaf_vector":"0"}},{"base_weights":[-9.302553E-4,8.507174E-3,-3.1008027E-3,1.6017402E-2,-8.891472E-3,-2.0000236E-2,-1.6656236E-3,2.8773343E-2,-4.556327E-3,-2.0327935E-2,1.6654223E-2,-3.8437176E-2,4.617091E-3,4.6274062E-2,-2.3845292E-3,-1.0202789E-2,3.428483E-2,3.0007076E-3,-4.888909E-2,7.7726453E-4,-4.1457426E-2,7.692243E-2,6.741644E-3,-5.2167624E-2,-9.054421E-3,-2.4006931E-2,3.8473446E-2,2.0490883E-2,6.081873E-2,-2.6688894E-4,-1.3688402E-2,3.5520602E-2,-3.2214254E-2,-1.1727794E-2,3.9264318E-2,2.4561424E-2,-9.251017E-3,-2.2089526E-2,-8.199058E-2,2.5952091E-2,-9.744633E-3,-5.993712E-2,-9.838091E-3,1.8595845E-2,9.016601E-2,2.1418927E-2,-1.8883903E-2,8.875031E-3,-6.1141573E-2,3.574343E-2,-1.906248E-2,-5.0995994E-2,1.4978785E-2,8.651713E-2,1.3488162E-2,2.3292552E-3,2.615655E-2,6.8150215E-2,3.0951083E-2,6.8370216E-3,-4.635481E-3,5.5019464E-2,-1.5854483E-2,4.2786457E-2,-4.043281E-4,-6.2364556E-2,-1.5234757E-2,-3.0806487E-2,2.1143675E-2,1.744417E-2,5.4359764E-2,4.5247544E-2,6.3751E-3,2.1123618E-2,-1.8275183E-2,-2.7925586E-2,-3.0542314E-3,6.35547E-3,3.3442717E-2,-1.5795536E-2,1.6407907E-2,-8.03145E-2,-2.6107593E-2,1.950663E-3,-2.9090231E-2,7.283319E-3,3.0585522E-2,-3.534093E-2,4.641312E-3,3.608653E-2,-1.37523515E-2,-7.173541E-2,-3.150634E-2,9.261578E-3,4.148352E-2,-2.449254E-2,-1.1318282E-3,-8.591406E-3,-6.088119E-2,-1.0778892E-2,3.12373E-2,9.561106E-2,1.5976787E-2,-2.0263042E-2,2.361455E-2,5.598366E-4,2.934046E-3,1.078185E-2,-1.7542979E-2,4.5911665E-3,-8.63646E-3,7.711927E-2,7.213235E-3,3.3465754E-2,-1.8582186E-2],"categories":[],"categories_nodes":[],"categories_segments":[],"categories_sizes":[],"default_left":[1,1,1,1,1,1,1,1,1,1,1,1,1,1,1,1,1,1,1,1,1,1,1,1,1,1,1,1,1,1,1,1,1,1,1,1,1,1,0,1,1,1,1,0,0,1,1,1,1,1,1,1,1,1,1,1,0,0,0,1,1,1,1,0,0,0,0,0,0,0,0,0,0,0,0,0,0,0,0,0,0,0,0,0,0,0,0,0,0,0,0,0,0,0,0,0,0,0,0,0,0,0,0,0,0,0,0,0,0,0,0,0,0,0,0],"id":13,"left_children":[1,3,5,7,9,11,13,15,17,19,21,23,25,27,29,31,33,35,37,39,41,43,45,47,49,51,53,55,57,59,61,63,65,67,69,71,73,75,-1,77,79,81,83,-1,-1,85,87,89,91,93,95,97,99,101,103,105,-1,-1,-1,107,109,111,113,-1,-1,-1,-1,-1,-1,-1,-1,-1,-1,-1,-1,-1,-1,-1,-1,-1,-1,-1,-1,-1,-1,-1,-1,-1,-1,-1,-1,-1,-1,-1,-1,-1,-1,-1,-1,-1,-1,-1,-1,-1,-1,-1,-1,-1,-1,-1,-1,-1,-1,-1,-1],"loss_changes":[3.3190604E-2,3.973476E-2,3.190882E-2,5.5767804E-2,2.7216569E-2,4.692589E-2,4.1984223E-2,2.849076E-2,2.761869E-2,2.857252E-2,1.6806405E-2,2.3330517E-2,4.4533353E-2,5.5039115E-3,2.8673517E-2,1.8253729E-2,2.68092E-2,1.8982291E-2,8.834135E-3,8.994162E-3,1.8108435E-2,1.4130976E-3,1.0183422E-2,2.2454381E-2,9.648148E-3,2.7068557E-2,2.4041127E-2,7.6225656E-4,2.993904E-4,3.137612E-2,2.9000565E-2,1.5834505E-3,5.193134E-3,8.177099E-3,3.330776E-2,9.492861E-3,1.2994901E-2,8.034373E-4,0E0,1.2553656E-3,4.057087E-3,1.1690326E-2,3.007209E-3,0E0,0E0,1.9800174E-3,4.0355795E-3,4.1906247E-3,8.728147E-3,2.2382988E-4,1.627475E-3,5.7646073E-3,4.943301E-3,2.9628612E-3,5.6051696E-3,1.5677997E-6,0E0,0E0,0E0,3.7216485E-2,2.3148831E-2,5.78277E-3,2.5375556E-2,0E0,0E0,0E0,0E0,0E0,0E0,0E0,0E0,0E0,0E0,0E0,0E0,0E0,0E0,0E0,0E0,0E0,0E0,0E0,0E0,0E0,0E0,0E0,0E0,0E0,0E0,0E0,0E0,0E0,0E0,0E0,0E0,0E0,0E0,0E0,0E0,0E0,0E0,0E0,0E0,0E0,0E0,0E0,0E0,0E0,0E0,0E0,0E0,0E0,0E0,0E0,0E0],"parents":[2147483647,0,0,1,1,2,2,3,3,4,4,5,5,6,6,7,7,8,8,9,9,10,10,11,11,12,12,13,13,14,14,15,15,16,16,17,17,18,18,19,19,20,20,21,21,22,22,23,23,24,24,25,25,26,26,27,27,28,28,29,29,30,30,31,31,32,32,33,33,34,34,35,35,36,36,37,37,39,39,40,40,41,41,42,42,45,45,46,46,47,47,48,48,49,49,50,50,51,51,52,52,53,53,54,54,55,55,59,59,60,60,61,61,62,62],"right_children":[2,4,6,8,10,12,14,16,18,20,22,24,26,28,30,32,34,36,38,40,42,44,46,48,50,52,54,56,58,60,62,64,66,68,70,72,74,76,-1,78,80,82,84,-1,-1,86,88,90,92,94,96,98,100,102,104,106,-1,-1,-1,108,110,112,114,-1,-1,-1,-1,-1,-1,-1,-1,-1,-1,-1,-1,-1,-1,-1,-1,-1,-1,-1,-1,-1,-1,-1,-1,-1,-1,-1,-1,-1,-1,-1,-1,-1,-1,-1,-1,-1,-1,-1,-1,-1,-1,-1,-1,-1,-1,-1,-1,-1,-1,-1,-1],"split_conditions":[4.1035038E-1,4.48398E-1,2.4363777E-1,6.2152267E-1,8.2960606E-1,6.0660577E-1,3.281796E-1,2.9238498E-1,5.068602E-1,4.9763113E-1,4.313957E-1,4.2178738E-1,4.409842E-1,6.1043584E-1,7.520896E-1,3.2986182E-1,5.745216E-1,5.464505E-1,4.0231532E-1,3.977129E-1,6.4851034E-1,3.1936044E-1,6.698638E-1,5.316324E-1,3.6055154E-1,6.767764E-1,5.5335754E-1,5.391977E-1,5.8350194E-1,4.1895026E-1,2.4791056E-1,8.174331E-1,3.0812794E-1,3.8663173E-1,5.185809E-1,2.8511816E-1,4.5774364E-1,2.724052E-1,-2.4597174E-2,4.735325E-1,6.9270635E-1,5.3749645E-1,6.0070384E-1,5.5787535E-3,2.7049804E-2,6.823281E-1,5.8485216E-1,4.5944268E-1,4.7420457E-1,4.5853764E-1,6.923132E-1,6.2213326E-1,6.55421E-1,6.5182674E-1,1.854468E-1,5.0478345E-1,7.846965E-3,2.0445066E-2,9.285325E-3,6.8945783E-1,3.5827732E-1,4.1292524E-1,5.479504E-1,1.2835938E-2,-1.21298435E-4,-1.8709367E-2,-4.5704274E-3,-9.241947E-3,6.3431025E-3,5.233251E-3,1.630793E-2,1.3574264E-2,1.91253E-3,6.3370857E-3,-5.482555E-3,-8.377676E-3,-9.1626943E-4,1.9066411E-3,1.0032816E-2,-4.738661E-3,4.9223723E-3,-2.4094352E-2,-7.8322785E-3,5.851989E-4,-8.72707E-3,2.1849957E-3,9.175657E-3,-1.060228E-2,1.3923937E-3,1.0825959E-2,-4.1257055E-3,-2.1520624E-2,-9.4519025E-3,2.7784735E-3,1.2445057E-2,-7.347762E-3,-3.3954845E-4,-2.577422E-3,-1.8264357E-2,-3.2336677E-3,9.37119E-3,2.8683318E-2,4.7930363E-3,-6.078913E-3,7.0843655E-3,1.6795099E-4,8.8021386E-4,3.234555E-3,-5.2628936E-3,1.37735E-3,-2.590938E-3,2.3135781E-2,2.1639706E-3,1.0039726E-2,-5.5746557E-3],"split_indices":[248,295,240,277,431,269,62,387,474,24,46,358,112,61,267,275,482,414,220,498,370,0,243,60,4,313,149,14,69,114,33,1,66,70,178,368,339,9,0,224,60,125,29,0,0,26,4,0,30,1,499,269,222,1,32,0,0,0,0,316,97,0,2,0,0,0,0,0,0,0,0,0,0,0,0,0,0,0,0,0,0,0,0,0,0,0,0,0,0,0,0,0,0,0,0,0,0,0,0,0,0,0,0,0,0,0,0,0,0,0,0,0,0,0,0],"split_type":[0,0,0,0,0,0,0,0,0,0,0,0,0,0,0,0,0,0,0,0,0,0,0,0,0,0,0,0,0,0,0,0,0,0,0,0,0,0,0,0,0,0,0,0,0,0,0,0,0,0,0,0,0,0,0,0,0,0,0,0,0,0,0,0,0,0,0,0,0,0,0,0,0,0,0,0,0,0,0,0,0,0,0,0,0,0,0,0,0,0,0,0,0,0,0,0,0,0,0,0,0,0,0,0,0,0,0,0,0,0,0,0,0,0,0],"sum_hessian":[1.618E3,3.02E2,1.316E3,2.11E2,9.1E1,1.02E2,1.214E3,1.3E2,8.1E1,6.3E1,2.8E1,5.8E1,4.4E1,1.7E1,1.197E3,1.6E1,1.14E2,7E1,1.1E1,3.2E1,3.1E1,3E0,2.5E1,3.9E1,1.9E1,2.4E1,2E1,7E0,1E1,1.009E3,1.88E2,5E0,1.1E1,1.1E1,1.03E2,2.5E1,4.5E1,7E0,4E0,9E0,2.3E1,1.9E1,1.2E1,1E0,2E0,1.6E1,9E0,5E0,3.4E1,3E0,1.6E1,1.4E1,1E1,6E0,1.4E1,2E0,5E0,7E0,3E0,3.84E2,6.25E2,5E0,1.83E2,4E0,1E0,3E0,8E0,7E0,4E0,4.3E1,6E1,1.1E1,1.4E1,1E1,3.5E1,5E0,2E0,3E0,6E0,1.9E1,4E0,1.1E1,8E0,8E0,4E0,7E0,9E0,5E0,4E0,2E0,3E0,2.4E1,1E1,1E0,2E0,1.2E1,4E0,3E0,1.1E1,4E0,6E0,5E0,1E0,3E0,1.1E1,1E0,1E0,3.31E2,5.3E1,1.89E2,4.36E2,3E0,2E0,9E0,1.74E2],"tree_param":{"num_deleted":"0","num_feature":"524","num_nodes":"115","size_leaf_vector":"0"}},{"base_weights":[-6.106925E-4,8.0635315E-3,-2.4149413E-3,1.0933608E-2,-2.965064E-2,6.067853E-3,-5.702049E-3,-2.730612E-2,1.3553041E-2,5.513817E-3,-4.9009487E-2,-1.6785815E-3,2.4043467E-2,-1.0788974E-3,-1.0774144E-2,-8.7329075E-3,-5.9901524E-2,2.2365725E-2,4.108074E-3,-9.889483E-3,1.6733695E-2,-6.2144898E-2,-3.918588E-3,-1.15298275E-2,8.488692E-3,4.167602E-2,1.0381336E-2,7.581867E-3,-7.0313867E-3,-5.4513775E-3,-2.1558903E-2,4.4998117E-3,-2.8158676E-2,9.917452E-4,2.7913041E-2,8.070061E-3,-1.8571412E-2,3.7208498E-3,1.9056693E-2,-1.0006815E-2,1.4464259E-3,-5.4690655E-2,-5.2140323E-3,-3.9516888E-3,2.137958E-2,-1.8689122E-2,4.8960447E-2,5.1771145E-2,9.913547E-4,-6.957126E-3,1.6069809E-2,-2.6212942E-2,-2.3452009E-3,1.4653612E-2,-9.190665E-3,-3.035171E-2,2.2919621E-5,1.1268921E-2,-1.8154383E-3,-2.8554594E-2,9.004758E-3,1.8682864E-2,4.694333E-2,1.2040217E-2,-9.906947E-3,4.116218E-3,-2.7614057E-2,3.6776066E-5,2.1328628E-3,-2.735841E-2,-1.0024003E-1,-1.0245969E-2,1.8516624E-2,2.4617044E-3,-3.682548E-2,3.5339713E-2,5.378803E-3,-4.0918488E-2,2.6551848E-3,6.607696E-2,3.045942E-2,2.1865105E-2,6.3991025E-2,-8.291194E-3,3.8031425E-2,-2.9650468E-2,7.3711537E-3,2.2271276E-2,-1.1115252E-2,-1.735505E-2,-8.051261E-2,3.9690204E-2,-4.893681E-3,2.2330029E-2,-6.1324323E-3,-3.4197206E-3,-2.380577E-2,-1.2911824E-2,-4.4616837E-2,-1.3212748E-2,2.4838364E-2],"categories":[],"categories_nodes":[],"categories_segments":[],"categories_sizes":[],"default_left":[1,1,1,1,1,1,1,1,1,1,1,1,1,1,1,1,0,1,1,0,1,0,1,1,1,1,1,1,1,1,1,1,0,1,1,1,1,0,0,0,1,1,1,1,1,1,1,1,1,1,1,1,1,1,1,1,1,0,0,0,0,0,0,0,0,0,0,0,0,0,0,0,0,0,0,0,0,0,0,0,0,0,0,0,0,0,0,0,0,0,0,0,0,0,0,0,0,0,0,0,0],"id":14,"left_children":[1,3,5,7,9,11,13,15,17,19,21,23,25,27,29,31,-1,33,35,-1,37,-1,39,41,43,45,47,49,51,53,55,57,-1,59,61,63,65,-1,-1,-1,67,69,71,73,75,77,79,81,83,85,87,89,91,93,95,97,99,-1,-1,-1,-1,-1,-1,-1,-1,-1,-1,-1,-1,-1,-1,-1,-1,-1,-1,-1,-1,-1,-1,-1,-1,-1,-1,-1,-1,-1,-1,-1,-1,-1,-1,-1,-1,-1,-1,-1,-1,-1,-1,-1,-1],"loss_changes":[2.5357565E-2,3.0523863E-2,3.742685E-2,2.6413355E-2,1.3885096E-2,5.2257948E-2,2.266362E-2,9.76871E-3,2.0217575E-2,1.5480727E-3,7.456217E-3,2.6440037E-2,2.6788853E-2,2.6190734E-2,2.6346058E-2,3.2113777E-3,0E0,1.491192E-2,1.0842718E-2,0E0,8.023705E-5,0E0,1.4512781E-4,3.6242563E-2,2.0932266E-2,2.2461578E-2,2.5210898E-2,2.5656871E-2,2.6994914E-2,2.3439955E-2,2.8844945E-2,3.6244694E-4,0E0,6.6495175E-3,1.6688257E-2,7.3991762E-3,3.806476E-3,0E0,0E0,0E0,2.8244685E-6,1.842203E-2,1.4280236E-2,1.4216434E-2,1.41057875E-2,2.9554686E-3,1.1920944E-2,2.9862076E-3,1.8881943E-2,2.5255613E-2,2.2332475E-2,2.6980557E-2,2.6225945E-2,7.955492E-3,2.2016443E-2,2.6292391E-2,1.5108387E-2,0E0,0E0,0E0,0E0,0E0,0E0,0E0,0E0,0E0,0E0,0E0,0E0,0E0,0E0,0E0,0E0,0E0,0E0,0E0,0E0,0E0,0E0,0E0,0E0,0E0,0E0,0E0,0E0,0E0,0E0,0E0,0E0,0E0,0E0,0E0,0E0,0E0,0E0,0E0,0E0,0E0,0E0,0E0,0E0],"parents":[2147483647,0,0,1,1,2,2,3,3,4,4,5,5,6,6,7,7,8,8,9,9,10,10,11,11,12,12,13,13,14,14,15,15,17,17,18,18,20,20,22,22,23,23,24,24,25,25,26,26,27,27,28,28,29,29,30,30,31,31,33,33,34,34,35,35,36,36,40,40,41,41,42,42,43,43,44,44,45,45,46,46,47,47,48,48,49,49,50,50,51,51,52,52,53,53,54,54,55,55,56,56],"right_children":[2,4,6,8,10,12,14,16,18,20,22,24,26,28,30,32,-1,34,36,-1,38,-1,40,42,44,46,48,50,52,54,56,58,-1,60,62,64,66,-1,-1,-1,68,70,72,74,76,78,80,82,84,86,88,90,92,94,96,98,100,-1,-1,-1,-1,-1,-1,-1,-1,-1,-1,-1,-1,-1,-1,-1,-1,-1,-1,-1,-1,-1,-1,-1,-1,-1,-1,-1,-1,-1,-1,-1,-1,-1,-1,-1,-1,-1,-1,-1,-1,-1,-1,-1,-1],"split_conditions":[2.7322984E-1,8.2718E-1,3.733054E-1,2.3316434E-1,2.915064E-1,7.2264177E-1,4.1862196E-1,3.7866008E-1,5.2271473E-1,3.7285048E-1,5.5512357E-1,5.148174E-1,5.1188374E-1,4.3465182E-1,5.9462076E-1,6.130895E-1,-1.7970458E-2,4.3265063E-1,6.8098485E-1,-2.9668452E-3,1.4048856E-1,-1.864347E-2,2.382274E-1,5.643984E-1,4.7452924E-1,2.7046266E-1,5.168878E-1,5.999236E-1,4.4954574E-1,2.7305472E-1,5.9861696E-1,4.1210264E-1,-8.447603E-3,3.5488236E-1,5.649408E-1,4.5775315E-1,4.3913788E-1,1.116255E-3,5.717008E-3,-3.0020447E-3,3.482054E-1,5.422589E-1,5.6851053E-1,5.2335536E-1,4.6020192E-1,6.620718E-1,5.9722894E-1,3.0767024E-1,6.784756E-1,5.014508E-1,7.1768177E-1,6.6753215E-1,2.6949537E-1,5.6595623E-1,5.687444E-1,4.6796042E-1,6.484393E-1,3.3806765E-3,-5.446315E-4,-8.566379E-3,2.7014273E-3,5.6048594E-3,1.4082999E-2,3.6120655E-3,-2.972084E-3,1.2348655E-3,-8.284218E-3,1.103282E-5,6.398589E-4,-8.207523E-3,-3.007201E-2,-3.0737908E-3,5.5549876E-3,7.385114E-4,-1.1047645E-2,1.06019145E-2,1.6136409E-3,-1.2275547E-2,7.965555E-4,1.9823087E-2,9.137827E-3,6.5595317E-3,1.9197308E-2,-2.4873584E-3,1.1409428E-2,-8.895141E-3,2.2113463E-3,6.681383E-3,-3.3345758E-3,-5.2065155E-3,-2.4153786E-2,1.1907062E-2,-1.4681044E-3,6.699009E-3,-1.8397297E-3,-1.0259162E-3,-7.141731E-3,-3.8735473E-3,-1.3385052E-2,-3.9638244E-3,7.4515096E-3],"split_indices":[11,202,498,211,116,431,449,379,279,38,155,285,500,456,29,125,0,299,149,0,0,0,0,151,478,393,460,126,313,401,142,15,0,219,378,470,80,0,0,0,0,466,476,71,394,2,222,48,495,359,222,480,79,119,454,339,133,0,0,0,0,0,0,0,0,0,0,0,0,0,0,0,0,0,0,0,0,0,0,0,0,0,0,0,0,0,0,0,0,0,0,0,0,0,0,0,0,0,0,0,0],"split_type":[0,0,0,0,0,0,0,0,0,0,0,0,0,0,0,0,0,0,0,0,0,0,0,0,0,0,0,0,0,0,0,0,0,0,0,0,0,0,0,0,0,0,0,0,0,0,0,0,0,0,0,0,0,0,0,0,0,0,0,0,0,0,0,0,0,0,0,0,0,0,0,0,0,0,0,0,0,0,0,0,0,0,0,0,0,0,0,0,0,0,0,0,0,0,0,0,0,0,0,0,0],"sum_hessian":[1.618E3,2.78E2,1.34E3,2.59E2,1.9E1,3.74E2,9.66E2,1.6E1,2.43E2,7E0,1.2E1,2.62E2,1.12E2,5.06E2,4.6E2,1.1E1,5E0,1.25E2,1.18E2,3E0,4E0,9E0,3E0,1.33E2,1.29E2,4.8E1,6.4E1,2.06E2,3E2,3.09E2,1.51E2,7E0,4E0,2.6E1,9.9E1,1.01E2,1.7E1,1E0,3E0,1E0,2E0,1.6E1,1.17E2,6.6E1,6.3E1,5E0,4.3E1,1.1E1,5.3E1,7.6E1,1.3E2,5.8E1,2.42E2,4.8E1,2.61E2,1.07E2,4.4E1,3E0,4E0,5E0,2.1E1,6.8E1,3.1E1,8.3E1,1.8E1,5E0,1.2E1,1E0,1E0,1.1E1,5E0,9.7E1,2E1,5.6E1,1E1,3.3E1,3E1,2E0,3E0,2.1E1,2.2E1,4E0,7E0,4.3E1,1E1,2.9E1,4.7E1,1.06E2,2.4E1,5.1E1,7E0,1.3E1,2.29E2,3.5E1,1.3E1,1.88E2,7.3E1,4.9E1,5.8E1,2.9E1,1.5E1],"tree_param":{"num_deleted":"0","num_feature":"524","num_nodes":"101","size_leaf_vector":"0"}},{"base_weights":[-4.6106428E-4,-8.529514E-3,9.700134E-4,-1.1071445E-2,2.0493688E-2,6.8546953E-3,-1.963778E-3,7.390554E-3,-1.6119843E-2,5.6062676E-2,8.097524E-3,1.4814137E-3,1.5864346E-2,-1.3260302E-3,-4.03103E-2,3.0524855E-2,-8.278666E-3,-2.507676E-2,-3.01579E-3,2.3156054E-2,-3.2531999E-3,4.5902457E-2,4.8303733E-5,-3.5458047E-2,1.8934468E-2,-2.5127963E-3,2.089016E-2,-1.6783377E-2,-8.400748E-2,1.28335105E-2,6.1546855E-2,-2.1123849E-2,4.2811097E-3,-2.948255E-2,1.9726519E-2,-1.0820239E-2,1.6824763E-2,8.216153E-3,2.7488785E-2,1.9176354E-3,-8.807562E-3,7.464079E-2,1.9093158E-2,9.829641E-4,-5.155461E-2,-3.8715154E-3,-6.627028E-2,9.322453E-3,3.277433E-2,3.133037E-2,-3.1098821E-3,3.4799132E-2,-7.364111E-3,-5.723347E-4,-3.019719E-2,-2.1946789E-3,1.9064253E-2,1.4840454E-2,6.6857845E-2,-3.607679E-2,-7.1466863E-3,1.3774946E-2,-9.893101E-3,-4.2103086E-2,-1.4849292E-2,1.2040944E-3,3.187412E-2,1.6567743E-3,-2.384086E-2,2.0938052E-3,4.0500842E-2,3.8706262E-3,-2.6516616E-5,-1.1198538E-2,-3.4807324E-3,2.2700462E-2,5.2832067E-4,3.882767E-3,-1.7281137E-2,-1.3265364E-2,9.944121E-3,1.1361591E-3,4.078288E-2,4.563877E-2,6.739121E-3,4.1934382E-2,8.435289E-3,-3.6075665E-3,3.885729E-2,-1.138314E-2,4.206255E-2,7.249194E-3,-3.292782E-2,-3.3152353E-3,6.5710843E-3],"categories":[],"categories_nodes":[],"categories_segments":[],"categories_sizes":[],"default_left":[1,1,1,1,1,1,1,1,1,0,1,1,1,1,1,1,1,1,1,1,1,1,1,1,1,1,1,1,0,1,1,1,1,1,1,1,1,0,0,1,1,0,1,1,0,1,0,1,1,1,1,1,1,1,0,0,0,0,0,0,0,0,0,0,0,0,0,0,0,0,0,0,0,0,0,0,0,0,0,0,0,0,0,0,0,0,0,0,0,0,0,0,0,0,0],"id":15,"left_children":[1,3,5,7,9,11,13,15,17,-1,19,21,23,25,27,29,31,33,35,37,39,41,43,45,47,49,51,53,-1,55,57,59,61,63,65,67,69,-1,-1,71,73,-1,75,77,-1,79,-1,81,83,85,87,89,91,93,-1,-1,-1,-1,-1,-1,-1,-1,-1,-1,-1,-1,-1,-1,-1,-1,-1,-1,-1,-1,-1,-1,-1,-1,-1,-1,-1,-1,-1,-1,-1,-1,-1,-1,-1,-1,-1,-1,-1,-1,-1],"loss_changes":[1.8702183E-2,1.822799E-2,2.3769313E-2,2.108993E-2,8.36441E-3,2.2148915E-2,2.2421066E-2,1.801503E-2,2.06992E-2,0E0,2.810135E-3,1.8331932E-2,2.7615152E-2,2.39132E-2,1.4010973E-2,1.0186555E-2,4.930412E-3,2.1307953E-2,1.1485703E-2,2.272618E-4,3.040966E-4,5.508963E-3,1.3555411E-2,9.475948E-3,2.1245152E-2,1.7475694E-2,1.833371E-2,2.3746884E-3,0E0,1.3527551E-3,7.4420124E-4,2.877166E-3,2.289359E-3,1.7104045E-2,2.211651E-3,8.649797E-3,7.239396E-3,0E0,0E0,2.2884104E-5,2.4702487E-5,0E0,3.8982113E-4,1.4684692E-2,0E0,9.106044E-4,0E0,2.4935462E-2,2.1797717E-2,3.2879673E-3,1.7810076E-2,1.0877475E-2,6.2158243E-3,1.3934683E-4,0E0,0E0,0E0,0E0,0E0,0E0,0E0,0E0,0E0,0E0,0E0,0E0,0E0,0E0,0E0,0E0,0E0,0E0,0E0,0E0,0E0,0E0,0E0,0E0,0E0,0E0,0E0,0E0,0E0,0E0,0E0,0E0,0E0,0E0,0E0,0E0,0E0,0E0,0E0,0E0,0E0],"parents":[2147483647,0,0,1,1,2,2,3,3,4,4,5,5,6,6,7,7,8,8,10,10,11,11,12,12,13,13,14,14,15,15,16,16,17,17,18,18,19,19,20,20,21,21,22,22,23,23,24,24,25,25,26,26,27,27,29,29,30,30,31,31,32,32,33,33,34,34,35,35,36,36,39,39,40,40,42,42,43,43,45,45,47,47,48,48,49,49,50,50,51,51,52,52,53,53],"right_children":[2,4,6,8,10,12,14,16,18,-1,20,22,24,26,28,30,32,34,36,38,40,42,44,46,48,50,52,54,-1,56,58,60,62,64,66,68,70,-1,-1,72,74,-1,76,78,-1,80,-1,82,84,86,88,90,92,94,-1,-1,-1,-1,-1,-1,-1,-1,-1,-1,-1,-1,-1,-1,-1,-1,-1,-1,-1,-1,-1,-1,-1,-1,-1,-1,-1,-1,-1,-1,-1,-1,-1,-1,-1,-1,-1,-1,-1,-1,-1],"split_conditions":[2.5914973E-1,7.5694615E-1,4.642121E-1,3.4018746E-1,3.796137E-1,7.0060134E-1,7.983632E-1,3.8323975E-1,5.8636737E-1,1.6818803E-2,5.51167E-1,3.2538253E-1,4.6366334E-1,6.792374E-1,3.8912815E-1,5.073914E-1,5.792849E-1,7.1696866E-1,4.2413044E-1,5.3880423E-1,3.5304242E-1,3.9167726E-1,8.1373143E-1,4.217893E-1,5.423289E-1,1.5218896E-1,5.083196E-1,6.0572803E-1,-2.5202245E-2,6.4736116E-1,5.7080424E-1,3.5923773E-1,5.8697414E-1,3.976944E-1,2.0807219E-1,4.5196715E-1,5.0765544E-1,2.464846E-3,8.246636E-3,4.9717227E-1,6.176952E-1,2.2392238E-2,6.496815E-1,5.836029E-1,-1.5466384E-2,2.5210357E-1,-1.9881085E-2,7.525404E-1,6.66986E-1,6.1448985E-1,7.586077E-1,2.7580926E-1,5.200585E-1,6.312249E-1,-9.059157E-3,-6.584037E-4,5.719276E-3,4.4521363E-3,2.0057354E-2,-1.08230375E-2,-2.144006E-3,4.132484E-3,-2.9679304E-3,-1.2630926E-2,-4.454788E-3,3.6122833E-4,9.562236E-3,4.970323E-4,-7.152258E-3,6.2814157E-4,1.2150253E-2,1.1611879E-3,-7.954985E-6,-3.3595616E-3,-1.0442198E-3,6.810139E-3,1.584962E-4,1.1648302E-3,-5.184341E-3,-3.9796093E-3,2.9832365E-3,3.4084774E-4,1.2234865E-2,1.3691631E-2,2.0217365E-3,1.2580316E-2,2.530587E-3,-1.0822699E-3,1.1657187E-2,-3.4149422E-3,1.2618766E-2,2.1747584E-3,-9.878346E-3,-9.945707E-4,1.9713254E-3],"split_indices":[22,359,151,249,20,2,425,8,194,0,313,74,296,91,33,311,147,301,418,1,239,8,98,49,442,263,79,5,0,25,1,418,139,35,22,188,193,0,0,0,2,0,2,453,0,0,0,294,135,74,243,11,193,1,0,0,0,0,0,0,0,0,0,0,0,0,0,0,0,0,0,0,0,0,0,0,0,0,0,0,0,0,0,0,0,0,0,0,0,0,0,0,0,0,0],"split_type":[0,0,0,0,0,0,0,0,0,0,0,0,0,0,0,0,0,0,0,0,0,0,0,0,0,0,0,0,0,0,0,0,0,0,0,0,0,0,0,0,0,0,0,0,0,0,0,0,0,0,0,0,0,0,0,0,0,0,0,0,0,0,0,0,0,0,0,0,0,0,0,0,0,0,0,0,0,0,0,0,0,0,0,0,0,0,0,0,0,0,0,0,0,0,0],"sum_hessian":[1.618E3,2.43E2,1.375E3,2.24E2,1.9E1,4.57E2,9.18E2,4.8E1,1.76E2,4E0,1.5E1,2.87E2,1.7E2,9.04E2,1.4E1,1.9E1,2.9E1,1.04E2,7.2E1,6E0,9E0,8E0,2.79E2,9E0,1.61E2,8.59E2,4.5E1,1E1,4E0,1.3E1,6E0,1.4E1,1.5E1,9.5E1,9E0,5.2E1,2E1,2E0,4E0,5E0,4E0,3E0,5E0,2.75E2,4E0,5E0,4E0,9.6E1,6.5E1,1.4E1,8.45E2,3E1,1.5E1,5E0,5E0,4E0,9E0,1E0,5E0,6E0,8E0,9E0,6E0,5E1,4.5E1,4E0,5E0,2.7E1,2.5E1,1.3E1,7E0,2E0,3E0,2E0,2E0,4E0,1E0,2.38E2,3.7E1,3E0,2E0,7.7E1,1.9E1,4.3E1,2.2E1,9E0,5E0,8.36E2,9E0,4E0,2.6E1,1E1,5E0,4E0,1E0],"tree_param":{"num_deleted":"0","num_feature":"524","num_nodes":"95","size_leaf_vector":"0"}},{"base_weights":[-2.9050818E-4,-5.3981645E-3,1.5031648E-3,9.903724E-3,-8.425818E-3,9.133296E-3,-1.3445765E-3,-4.8625944E-3,2.7590685E-2,6.264845E-2,-9.010952E-3,1.4708197E-2,-3.4316638E-3,3.4425417E-3,-6.599146E-3,-1.792004E-2,1.3089396E-2,-7.660359E-3,3.4402374E-2,3.953753E-3,-1.238294E-2,1.776334E-2,-1.3029093E-2,-2.3191892E-2,3.7277737E-3,1.835843E-3,2.8051276E-2,-3.5711091E-3,-2.6464205E-2,1.2344043E-2,-2.7012508E-2,-4.610582E-4,3.2513052E-2,-2.366817E-2,6.2605888E-3,5.548003E-2,2.2607569E-2,-1.0754109E-3,3.2397714E-2,-1.7459229E-2,-1.9302352E-3,5.9991567E-3,2.7761834E-2,-4.2377926E-2,8.865011E-3,-5.1365938E-2,-8.625666E-3,-1.9071708E-2,8.373258E-3,-2.1447209E-3,1.182087E-2,9.110681E-3,5.254618E-2,-1.936524E-2,1.3521645E-4,-9.675989E-3,-4.1182056E-2,-1.8059313E-3,1.5535223E-2,-1.10478485E-2,-4.174963E-2,-1.3434428E-2,8.8715E-3,3.577219E-2,6.4791143E-3,1.8074691E-2,6.358517E-2,2.6669262E-2,7.089004E-4,1.960583E-2,-6.3260132E-3,-5.74102E-3,4.151088E-2,-3.82917E-2,-1.3393194E-2,1.1801022E-3,-4.670842E-2,-3.013802E-2,1.1586918E-2,3.7338074E-2,5.257943E-3,-2.1866282E-2,-6.7678824E-2,2.6210627E-2,-3.6837342E-3,8.319486E-3,-2.170573E-2,-4.106556E-2,5.6466735E-3,1.4072324E-2,-5.5652303E-3,2.1288611E-2,-4.372831E-3,1.8857395E-2,-5.043955E-3,-1.5431881E-2,2.0622738E-2,7.052027E-2,2.2818714E-2,-2.6469957E-2,-6.351845E-4,4.063841E-3,-1.5319626E-2,-3.989844E-2,2.8967909E-3,3.4830868E-3,-4.84678E-2],"categories":[],"categories_nodes":[],"categories_segments":[],"categories_sizes":[],"default_left":[1,1,1,1,1,1,1,1,1,0,1,1,1,1,1,1,1,1,1,1,1,1,1,1,1,1,1,1,1,1,1,1,1,0,0,1,1,1,1,1,1,1,1,1,1,0,1,1,1,1,1,1,1,1,1,1,1,0,0,0,0,0,0,0,0,0,0,0,0,0,0,0,0,0,0,0,0,0,0,0,0,0,0,0,0,0,0,0,0,0,0,0,0,0,0,0,0,0,0,0,0,0,0,0,0,0,0],"id":16,"left_children":[1,3,5,7,9,11,13,15,17,-1,19,21,23,25,27,29,31,33,35,37,39,41,43,45,47,49,51,53,55,57,59,61,63,-1,-1,65,67,69,71,73,75,77,79,81,83,-1,85,87,89,91,93,95,97,99,101,103,105,-1,-1,-1,-1,-1,-1,-1,-1,-1,-1,-1,-1,-1,-1,-1,-1,-1,-1,-1,-1,-1,-1,-1,-1,-1,-1,-1,-1,-1,-1,-1,-1,-1,-1,-1,-1,-1,-1,-1,-1,-1,-1,-1,-1,-1,-1,-1,-1,-1,-1],"loss_changes":[1.48405265E-2,1.958788E-2,2.606492E-2,1.8416155E-2,1.5203495E-2,2.2886254E-2,2.2007527E-2,9.37644E-3,7.947346E-3,0E0,1.5349848E-2,1.9383002E-2,1.4375139E-2,1.8057283E-2,2.4988933E-2,6.6624745E-3,4.48938E-3,1.4852401E-3,5.4581165E-3,1.0477443E-2,1.4717244E-2,2.3828775E-2,1.5154708E-2,1.0637452E-2,8.103289E-3,1.7155895E-2,1.2511814E-2,2.1251982E-2,1.3191275E-2,2.9898627E-4,3.7736716E-3,1.4510055E-3,3.6216527E-4,0E0,0E0,1.5792977E-3,1.6710619E-3,6.9651324E-3,4.0615257E-3,1.5327089E-2,1.2868445E-2,1.9532168E-2,2.3508973E-2,3.7097465E-3,3.1438728E-3,0E0,4.39181E-3,7.2993645E-3,5.0828075E-3,1.6226614E-2,1.4691498E-2,5.1213484E-3,4.8027076E-3,9.165138E-3,1.7973555E-2,1.0375043E-2,9.605963E-3,0E0,0E0,0E0,0E0,0E0,0E0,0E0,0E0,0E0,0E0,0E0,0E0,0E0,0E0,0E0,0E0,0E0,0E0,0E0,0E0,0E0,0E0,0E0,0E0,0E0,0E0,0E0,0E0,0E0,0E0,0E0,0E0,0E0,0E0,0E0,0E0,0E0,0E0,0E0,0E0,0E0,0E0,0E0,0E0,0E0,0E0,0E0,0E0,0E0,0E0],"parents":[2147483647,0,0,1,1,2,2,3,3,4,4,5,5,6,6,7,7,8,8,10,10,11,11,12,12,13,13,14,14,15,15,16,16,17,17,18,18,19,19,20,20,21,21,22,22,23,23,24,24,25,25,26,26,27,27,28,28,29,29,30,30,31,31,32,32,35,35,36,36,37,37,38,38,39,39,40,40,41,41,42,42,43,43,44,44,46,46,47,47,48,48,49,49,50,50,51,51,52,52,53,53,54,54,55,55,56,56],"right_children":[2,4,6,8,10,12,14,16,18,-1,20,22,24,26,28,30,32,34,36,38,40,42,44,46,48,50,52,54,56,58,60,62,64,-1,-1,66,68,70,72,74,76,78,80,82,84,-1,86,88,90,92,94,96,98,100,102,104,106,-1,-1,-1,-1,-1,-1,-1,-1,-1,-1,-1,-1,-1,-1,-1,-1,-1,-1,-1,-1,-1,-1,-1,-1,-1,-1,-1,-1,-1,-1,-1,-1,-1,-1,-1,-1,-1,-1,-1,-1,-1,-1,-1,-1,-1,-1,-1,-1,-1,-1],"split_conditions":[4.3227917E-1,3.005914E-1,4.3463093E-1,5.589609E-1,5.504682E-2,4.0063733E-1,4.0807706E-1,4.9108085E-1,2.6601884E-1,1.8794537E-2,2.4623662E-1,6.939286E-1,3.8746506E-1,7.284328E-1,7.455069E-1,5.113134E-1,5.903043E-1,5.165646E-1,3.8384402E-1,7.3117006E-1,4.6207884E-1,5.089258E-1,4.549612E-1,6.323142E-1,2.795933E-1,5.0324345E-1,6.782863E-1,3.0568254E-1,5.207776E-1,2.7472946E-1,6.6431826E-1,6.5630126E-1,7.1826196E-1,-7.1004513E-3,1.8781767E-3,3.3846062E-1,7.4265236E-1,5.650212E-1,7.5444055E-1,3.5004956E-1,6.1264503E-1,2.930712E-1,5.536468E-1,6.570275E-1,5.104633E-1,-1.5409782E-2,6.4459175E-1,6.340203E-1,7.130334E-1,2.4591166E-1,5.263753E-1,5.394887E-1,7.5045747E-1,6.6076005E-1,6.243886E-1,4.4878757E-1,2.807301E-1,-5.4177945E-4,4.6605673E-3,-3.3143547E-3,-1.252489E-2,-4.0303287E-3,2.6614503E-3,1.0731657E-2,1.9437344E-3,5.4224078E-3,1.9075552E-2,8.000779E-3,2.1267013E-4,5.8817496E-3,-1.8978041E-3,-1.7223061E-3,1.2453265E-2,-1.148751E-2,-4.0179584E-3,3.540307E-4,-1.4012527E-2,-9.041406E-3,3.4760754E-3,1.1201423E-2,1.577383E-3,-6.559885E-3,-2.0303648E-2,7.863188E-3,-1.1051203E-3,2.4958458E-3,-6.5117194E-3,-1.2319668E-2,1.6940021E-3,4.2216973E-3,-1.6695692E-3,6.3865837E-3,-1.3118493E-3,5.657219E-3,-1.5131866E-3,-4.6295645E-3,6.1868215E-3,2.115608E-2,6.8456144E-3,-7.940987E-3,-1.9055537E-4,1.2191524E-3,-4.595888E-3,-1.1969533E-2,8.690373E-4,1.0449261E-3,-1.4540341E-2],"split_indices":[474,449,472,304,152,302,408,180,30,0,11,390,216,443,512,133,205,7,21,252,101,455,309,497,226,485,267,99,336,0,262,42,1,0,0,15,187,98,1,170,172,472,203,29,63,0,448,281,144,295,51,11,510,303,434,420,412,0,0,0,0,0,0,0,0,0,0,0,0,0,0,0,0,0,0,0,0,0,0,0,0,0,0,0,0,0,0,0,0,0,0,0,0,0,0,0,0,0,0,0,0,0,0,0,0,0,0],"split_type":[0,0,0,0,0,0,0,0,0,0,0,0,0,0,0,0,0,0,0,